<?xml version="1.0"?>
<opencv_storage>
<opencv_ml_svm>
  <format>3</format>
  <svmType>C_SVC</svmType>
  <kernel>
    <type>LINEAR</type></kernel>
  <C>1.</C>
  <term_criteria><iterations>1000</iterations></term_criteria>
  <var_count>585</var_count>
  <class_count>9</class_count>
  <class_labels type_id="opencv-matrix">
    <rows>9</rows>
    <cols>1</cols>
    <dt>i</dt>
    <data>
      1 2 3 4 5 6 7 8 9</data></class_labels>
  <sv_total>36</sv_total>
  <support_vectors>
    <_>
      -4.69890103e-04 7.07857963e-03 1.61516247e-03 -4.48131375e-03
      2.95547117e-03 -3.15576536e-03 -1.22510567e-02 -3.37930792e-03
      9.47035849e-03 4.48536407e-03 1.00367628e-02 8.03575944e-03
      -9.66074876e-03 -2.14224309e-02 2.88156643e-05 -6.21469412e-03
      4.00939444e-03 1.29465591e-02 3.29028955e-03 7.95392878e-03
      -3.76241864e-03 -1.63342357e-02 -2.55613197e-02 1.00341449e-02
      8.02770909e-03 1.47970496e-02 6.17043115e-03 1.51610877e-02
      -2.61340346e-02 -1.77280586e-02 -3.08219362e-02 -6.37930073e-03
      1.42621174e-02 1.33951129e-02 3.10526676e-02 7.57556222e-03
      1.97567325e-02 -1.73305161e-02 -2.75428407e-02 -5.56495674e-02
      -2.56209262e-03 -3.16293957e-03 3.34038176e-02 4.00598347e-02
      3.86539586e-02 -9.60490480e-03 4.97870427e-03 8.54707044e-03
      2.18699668e-02 4.94440692e-03 -1.67174879e-02 -2.72598360e-02
      6.86521130e-03 -1.80213829e-03 -6.40590815e-03 1.37578463e-04
      7.28403823e-03 4.71579639e-04 7.79523375e-03 1.23987324e-03
      -2.08763387e-02 9.29459557e-03 4.31541447e-03 2.78576417e-03
      -1.12366863e-03 -9.23387520e-03 -1.35864401e-02 7.55143864e-03
      8.51228461e-03 -1.44196546e-03 1.76068880e-02 -1.17916556e-03
      2.02354882e-02 -3.58343311e-02 -2.75034551e-02 -2.76186019e-02
      9.90283117e-03 1.66707598e-02 3.10889841e-03 2.48894505e-02
      1.86332539e-02 1.86340604e-02 -3.13243046e-02 -3.77810411e-02
      -4.79892902e-02 6.20435271e-03 3.25507880e-03 2.30123214e-02
      3.90070528e-02 3.63101400e-02 -1.81514360e-02 1.16846012e-02
      1.09038763e-02 2.36413199e-02 1.03684869e-02 -1.37033304e-02
      -1.58589799e-02 -5.93343982e-03 -1.81101989e-02 -1.29773188e-02
      5.02072740e-03 7.93656800e-03 1.09379645e-02 4.89355717e-03
      1.28786759e-02 -4.84050857e-03 1.23958196e-03 -1.46645196e-02
      3.59074492e-03 9.24594700e-03 -3.05382139e-03 -1.20623587e-02
      -4.68596444e-03 1.58257894e-02 1.50659373e-02 1.91425290e-02
      -4.03558166e-04 1.65224038e-02 -2.63355337e-02 -3.95860225e-02
      -2.59129219e-02 5.22243325e-04 1.05697373e-02 4.10790555e-03
      2.26529296e-02 4.14574780e-02 1.56188421e-02 -2.66206916e-02
      -3.34943682e-02 -5.33071347e-02 -1.07897101e-02 2.50536557e-02
      1.58714447e-02 4.37357277e-02 3.87246832e-02 -2.43513640e-02
      2.37836726e-02 1.41326571e-02 1.34709617e-02 1.63731836e-02
      -1.64284818e-02 -1.08453566e-02 -1.88586898e-02 -2.79627815e-02
      -1.67231467e-02 1.05203670e-02 1.07347779e-02 8.95942468e-03
      9.24080703e-03 4.12931619e-03 -6.78010145e-03 2.24518077e-03
      -5.99106913e-03 -4.30207141e-03 1.17393283e-04 1.56003388e-03
      -1.76915005e-02 -2.91912607e-03 1.88738834e-02 2.25791410e-02
      2.17597969e-02 1.35155926e-02 6.71270350e-03 -3.76658589e-02
      -2.96845287e-02 -2.52007190e-02 3.87146650e-03 1.42071210e-02
      2.83719189e-02 3.64982262e-02 4.32497859e-02 2.91082896e-02
      -5.01637571e-02 -5.60044982e-02 -4.58828136e-02 -1.23643177e-02
      2.85451170e-02 1.93694308e-02 3.02221589e-02 5.58618866e-02
      -2.61162650e-02 1.35055082e-02 8.89264606e-03 2.70022079e-02
      1.82363633e-02 -1.35400221e-02 -1.57891549e-02 -2.48138420e-02
      -2.59343032e-02 -9.84428450e-03 -6.59562997e-04 -2.53226026e-03
      5.47994813e-03 2.36036219e-02 3.70505033e-03 -1.20470338e-02
      -1.25069506e-02 7.54019665e-03 -4.07734653e-03 -1.40938265e-02
      -1.50480624e-02 -2.16985550e-02 2.00165622e-02 1.74544100e-02
      1.17512178e-02 7.47317262e-03 2.07931101e-02 1.45207411e-02
      -3.29818949e-02 -3.52156274e-02 -3.20245922e-02 -1.60245167e-04
      1.19460337e-02 2.98982151e-02 2.45224014e-02 5.63982725e-02
      4.33164649e-02 -4.25480194e-02 -5.84167056e-02 -3.31131332e-02
      -1.86182279e-02 2.07633823e-02 6.99624000e-03 9.25853103e-03
      7.51687959e-02 -1.68074239e-02 1.34473732e-02 1.48884915e-02
      6.40742853e-03 6.34409138e-04 -6.07533008e-03 -1.27851907e-02
      -1.44051723e-02 -1.07507352e-02 -4.97532263e-03 6.29371731e-04
      -8.20868649e-03 -3.99378175e-03 -5.21430920e-04 9.00406763e-03
      -1.14148075e-03 -7.33225746e-03 5.82500128e-03 6.22115145e-03
      -1.03977108e-02 -2.04708483e-02 -2.27704402e-02 -6.84542302e-03
      3.96204367e-03 2.10308712e-02 1.40581271e-02 1.91384610e-02
      2.91136689e-02 -2.79170815e-02 -4.11730707e-02 -3.74430344e-02
      -2.95601506e-02 7.62856612e-03 3.25971693e-02 3.18504907e-02
      7.06700683e-02 5.39312884e-02 -2.89285369e-02 -5.77380434e-02
      -3.82465608e-02 -1.68691371e-02 5.27219893e-03 3.04951798e-03
      1.81908906e-02 8.29908028e-02 -1.38588008e-02 7.13717984e-03
      1.94316898e-02 -3.91789153e-03 -5.39141940e-03 -1.30501790e-02
      -6.38531009e-03 -2.87466520e-03 1.53469155e-02 -6.69048214e-03
      -8.05260148e-03 -5.75923314e-03 -2.08472218e-02 -7.24620791e-03
      3.04227718e-03 1.57369561e-02 1.27206519e-02 1.45342294e-02
      7.29073258e-03 -1.81029029e-02 -1.95554029e-02 -3.36104594e-02
      -2.59507075e-02 3.97257134e-03 2.71940511e-02 2.70785056e-02
      2.95969173e-02 2.70800013e-02 -3.15457731e-02 -4.69780229e-02
      -3.06785516e-02 -2.21171789e-02 1.29360911e-02 3.42742652e-02
      3.08916662e-02 7.16141313e-02 6.24687113e-02 -1.59821156e-02
      -6.08704984e-02 -5.07020950e-02 -2.94118635e-02 3.55107681e-04
      1.18286116e-04 2.22127307e-02 9.10762697e-02 -2.55934033e-03
      2.08438132e-02 3.62457000e-02 -1.21246334e-02 -4.38263500e-03
      -1.31450389e-02 -1.61357952e-04 8.56456999e-03 7.05105299e-03
      -1.82199222e-03 -5.40671498e-03 -5.13942679e-04 -3.04020625e-02
      -6.72152964e-03 -1.61191775e-03 1.68029256e-02 3.44127156e-02
      1.96782760e-02 3.44491168e-03 -2.06620339e-02 -2.07337979e-02
      -3.99864800e-02 -1.58564616e-02 3.34130105e-04 2.39405185e-02
      3.85527499e-02 3.08687352e-02 3.02523840e-02 -3.20033655e-02
      -4.89653796e-02 -4.87497076e-02 -2.11971980e-02 7.99701642e-03
      3.06304619e-02 3.76597419e-02 7.40951523e-02 6.10232651e-02
      -2.02233717e-02 -5.19121289e-02 -5.37793450e-02 -4.07800898e-02
      -7.25743175e-03 -5.71019133e-04 2.64799725e-02 8.43448266e-02
      7.84013420e-03 2.42389552e-02 3.98266651e-02 -8.42174236e-03
      -7.08728097e-03 -2.00230870e-02 -6.67116977e-03 -2.02407688e-03
      1.28062824e-02 7.23743066e-03 -8.70599598e-03 -6.35342905e-03
      -1.35970144e-02 -4.60689655e-03 -1.66515028e-03 1.31870406e-02
      1.50730787e-02 1.34781087e-02 6.71357568e-03 -2.08059736e-02
      -2.51484178e-02 -3.49854119e-02 -1.84948277e-02 3.39541095e-03
      2.46657748e-02 2.97529940e-02 2.50295606e-02 2.69958545e-02
      -2.17203572e-02 -4.95559722e-02 -5.22910133e-02 -3.17460373e-02
      6.78855134e-03 2.78790817e-02 3.39248665e-02 6.25605285e-02
      5.26761636e-02 -1.71952508e-02 -4.50702943e-02 -5.91383167e-02
      -5.05765937e-02 -7.88207073e-03 1.16214133e-03 2.89790612e-02
      7.45704249e-02 1.60054639e-02 2.16569733e-02 4.00402658e-02
      -1.32487938e-02 -2.29772646e-02 -3.07644103e-02 -1.64151713e-02
      -1.59239862e-02 9.57089476e-03 7.25815399e-03 -1.40804937e-02
      -1.96557734e-02 -1.38492445e-02 -9.33785643e-03 -5.94451977e-03
      6.88844314e-03 9.71932709e-03 1.01677049e-02 2.93399487e-03
      -1.41962888e-02 -2.82594338e-02 -3.17537971e-02 -1.52730001e-02
      2.56324373e-03 1.98590979e-02 2.42542066e-02 1.90000366e-02
      1.67724602e-02 -1.67274587e-02 -3.96986008e-02 -5.30477352e-02
      -3.34745534e-02 3.39320023e-03 2.48671211e-02 2.90293191e-02
      4.67095748e-02 3.79887894e-02 -1.32058598e-02 -3.54431830e-02
      -6.12554960e-02 -5.90635464e-02 -9.51988343e-03 9.57349548e-04
      3.33567932e-02 7.10477605e-02 2.01964807e-02 2.56335586e-02
      3.59844081e-02 -9.76090087e-04 -2.60860007e-02 -3.52819040e-02
      -3.82497348e-02 -2.65724380e-02 1.01466803e-02 8.47413670e-03
      -1.05882101e-02 -1.45697473e-02 -1.24704037e-02 -1.28193628e-02
      -1.21817943e-02 -4.48959041e-03 4.91842302e-03 1.46823395e-02
      4.87162732e-03 -1.25355730e-02 -2.35140044e-02 -3.45993899e-02
      -1.48589741e-02 2.77703541e-04 3.39190196e-03 2.13051978e-02
      1.67515632e-02 7.14770705e-03 -1.28224036e-02 -3.53638493e-02
      -5.40382750e-02 -2.77326740e-02 2.30604853e-03 1.66170411e-02
      3.60494368e-02 3.19038853e-02 3.38679664e-02 -1.26673635e-02
      -3.57642323e-02 -6.45734295e-02 -5.92509918e-02 -5.74646192e-03
      -6.23362605e-03 4.25772294e-02 6.74119294e-02 1.78757533e-02
      3.56464945e-02 1.23592755e-02 2.94692768e-03 -3.84005951e-03
      -3.21220607e-02 -5.05666658e-02 -2.62928791e-02 9.41847358e-03
      1.05346441e-02 5.77852363e-03 -2.02185996e-02 -5.76041546e-03
      -4.02125204e-03 -1.31446254e-02 -2.14686934e-02 4.50491579e-03
      1.66914985e-02 5.32225054e-03 9.28626861e-03 -3.39925401e-02
      -2.90668327e-02 -1.45590398e-02 -2.01046024e-03 -1.27827199e-02
      2.59684138e-02 1.38865337e-02 3.47928330e-03 4.94577762e-05
      -3.58021073e-02 -4.65793833e-02 -2.88924221e-02 -6.39557140e-04
      -2.47620465e-03 3.71831097e-02 2.80471426e-02 3.25169228e-02
      -5.79358637e-03 -4.11873087e-02 -6.01475276e-02 -5.51806018e-02
      -8.43572337e-03 -1.42983533e-02 3.89665067e-02 7.03167021e-02
      2.10126396e-02 1.13132494e-02 7.25042121e-03 4.43655020e-03
      7.84730632e-03 -3.24237421e-02 -5.56859709e-02 -2.90414356e-02
      1.84600465e-02 1.54299568e-02 -1.95565931e-02 -8.40236526e-03
      5.36802551e-03 7.23798899e-03 -1.47034386e-02 -3.66653502e-02
      -1.41324122e-02 1.73726361e-02 1.53293330e-02 -2.23940220e-02
      -3.59807014e-02 -2.05862708e-02 -1.99290854e-03 -1.61928439e-03
      -2.12191436e-02 -8.91208183e-03 2.29234099e-02 1.72841400e-02
      -1.85409319e-02 -3.52314226e-02 -5.31471595e-02 -1.48828411e-02
      -2.97511905e-03 -7.60998577e-03 1.03311213e-02 4.46265973e-02
      1.76331569e-02 -1.68215707e-02 -2.35089008e-02 -5.79110198e-02
      -3.20153460e-02 -1.30939689e-02 -1.57105513e-02 2.54767686e-02
      6.30028918e-02</_>
    <_>
      3.48437987e-02 6.71656616e-03 1.91428829e-02 -2.42520738e-02
      -2.39384603e-02 -4.99078184e-02 -2.60102898e-02 1.25044687e-02
      5.30695580e-02 3.33254412e-02 5.82667179e-02 3.69665362e-02
      -1.07530048e-02 -6.10793792e-02 -8.46658871e-02 -2.38242410e-02
      2.41413265e-02 3.09484322e-02 2.29344256e-02 5.41392937e-02
      2.07271576e-02 -1.34766418e-02 -1.05557591e-01 -8.72854218e-02
      2.55995300e-02 1.91442706e-02 2.57680714e-02 -1.23510407e-02
      1.66832320e-02 -2.71951985e-02 -4.63271514e-02 -4.83109877e-02
      -4.20463048e-02 3.26569155e-02 1.32862460e-02 -5.74489124e-03
      1.58099104e-02 2.28204969e-02 3.75898145e-02 -7.12281419e-03
      -7.44348718e-03 -6.20965287e-02 -1.41423158e-02 2.56399550e-02
      3.99523191e-02 4.22087424e-02 -2.40469966e-02 -1.37972028e-03
      -6.80108147e-04 -3.27802002e-02 -1.99725945e-02 -1.17744580e-02
      2.59219334e-02 7.23655373e-02 1.84720736e-02 2.70911003e-03
      3.67116556e-02 2.38418882e-03 -3.85007076e-02 -1.81125533e-02
      -8.70782416e-03 5.44046657e-03 3.23382691e-02 3.60962823e-02
      7.69117195e-03 1.57325231e-02 -1.72595922e-02 -4.80301352e-03
      -3.65533009e-02 -1.20240673e-02 -1.43407499e-02 1.27412034e-02
      1.12941563e-02 -1.50865112e-02 -4.05085720e-02 -7.58877322e-02
      1.40235145e-02 -9.65322542e-04 -9.77622531e-03 -3.34585123e-02
      4.55558859e-02 -5.64873358e-03 2.18527988e-02 4.38032448e-02
      -1.68756247e-02 3.68485674e-02 -4.08516973e-02 -1.84996221e-02
      -4.00221497e-02 5.64619619e-03 3.07071898e-02 8.99175764e-04
      1.00122569e-02 -3.57552283e-02 -4.37229648e-02 -1.75366197e-02
      -7.25933292e-04 4.43858877e-02 5.19127063e-02 -1.31018311e-02
      1.60297472e-02 2.85284109e-02 -2.66019423e-02 -5.37986755e-02
      3.84547864e-03 1.70949679e-02 3.01368665e-02 2.23398842e-02
      2.87050754e-02 2.42881011e-02 3.02453618e-02 -1.88911036e-02
      -1.91842522e-02 -1.57242920e-02 -2.36471947e-02 -3.53222038e-03
      1.46614071e-02 -9.19726025e-03 -2.04837834e-03 -2.66685374e-02
      -5.18581048e-02 -1.63559765e-02 -3.33808642e-03 -9.52233281e-03
      2.87807286e-02 7.49728084e-02 -1.38793429e-02 5.03709055e-02
      5.46863675e-02 -4.94236350e-02 3.53859067e-02 -4.83418964e-02
      -3.18286866e-02 -6.14837222e-02 2.27493942e-02 1.96984895e-02
      -1.97389107e-02 9.87186469e-03 -9.55857709e-03 -2.04010550e-02
      -1.39439907e-02 -8.71513970e-03 2.28717178e-02 2.60393228e-02
      2.91239261e-03 -1.40423132e-02 1.91942661e-03 -3.47604863e-02
      -2.82564964e-02 5.91720873e-03 -1.96113506e-05 5.54695055e-02
      4.01606970e-02 2.29102746e-02 -1.57112011e-03 -3.32967006e-03
      -2.07474753e-02 -6.06864691e-03 1.68954581e-03 -2.73967683e-02
      3.44963893e-02 4.91220467e-02 -2.24149926e-03 -2.57514697e-03
      -1.04225790e-02 -5.41331992e-03 -3.20701562e-02 -1.78157929e-02
      -2.72320537e-03 -2.21017166e-03 8.47301409e-02 3.64696654e-03
      3.43472883e-02 1.13403685e-02 -3.09323557e-02 1.41633060e-02
      -6.62244335e-02 -5.70600294e-02 -5.93830906e-02 7.85218775e-02
      3.86244692e-02 -2.01143604e-02 -1.34921558e-02 4.98733425e-04
      -2.19267681e-02 -2.24916991e-02 -2.29038484e-02 1.49932057e-02
      2.13201735e-02 2.05819402e-02 -2.65953857e-02 -2.93964315e-02
      -1.03553487e-02 -1.92885082e-02 4.05287696e-03 -2.95824674e-03
      1.06836995e-02 5.10640927e-02 -8.29295907e-03 -3.43492404e-02
      -2.96151284e-02 7.77585059e-03 4.35584877e-03 -1.74304168e-03
      -1.72751732e-02 -6.60102291e-04 4.69204150e-02 1.37679407e-03
      1.07175168e-02 6.10534661e-03 2.56495345e-02 -6.31039068e-02
      -3.04859150e-02 -1.28158415e-02 -2.24741176e-02 6.40719905e-02
      8.96777362e-02 2.29916964e-02 -2.53460836e-02 -3.02388575e-02
      -9.82199088e-02 -6.62933439e-02 -8.25962946e-02 -4.43076566e-02
      1.38880640e-01 9.01674479e-03 4.64569172e-03 3.07034864e-03
      -2.19968334e-02 -5.55508062e-02 -1.53559865e-02 -3.65906172e-02
      3.03186867e-02 3.37900333e-02 -2.02428605e-02 -1.04236966e-02
      -2.32250690e-02 -2.98187211e-02 -2.48100366e-02 4.16941801e-03
      5.34201646e-03 2.16584690e-02 3.77330147e-02 8.57139996e-04
      -3.79050560e-02 -4.17562053e-02 8.63016210e-03 -2.70919651e-02
      -1.88650023e-02 -9.68388189e-03 2.33334675e-02 4.56687398e-02
      1.22826276e-02 -3.30550806e-03 -8.25798698e-03 3.57073247e-02
      -7.25608841e-02 -6.05170429e-02 -1.58030391e-02 -4.83237533e-03
      5.04534207e-02 1.00020565e-01 5.69781009e-03 -3.45854722e-02
      -3.41923162e-02 -8.51199627e-02 -8.83782730e-02 -8.65061656e-02
      -6.03249483e-03 6.31508455e-02 -1.38554499e-02 -5.13706822e-03
      8.56188871e-03 5.27635356e-03 -2.17945576e-02 -2.75203288e-02
      -3.43488455e-02 1.25976801e-02 -1.75776682e-03 -2.30190195e-02
      -1.26558645e-02 -3.61069627e-02 -1.86710320e-02 -9.18447878e-03
      -5.36537310e-03 3.91845815e-02 2.47883387e-02 5.53544937e-03
      -2.05475017e-02 -3.64676006e-02 -4.58182916e-02 2.13416410e-03
      -3.10902037e-02 -5.60560590e-03 5.05325105e-03 3.89237814e-02
      3.97731140e-02 -1.52012184e-02 -1.10124005e-03 4.18186595e-04
      9.08994675e-03 -8.11779946e-02 -6.47613704e-02 -2.89555620e-02
      -2.51940219e-03 3.72308269e-02 6.97602108e-02 2.87621785e-02
      -4.14133184e-02 -5.19627705e-02 -1.08487658e-01 -7.95786604e-02
      -1.01203516e-01 -1.34196747e-02 7.81076923e-02 -2.20427453e-03
      -4.28740606e-02 2.79331654e-02 1.95043422e-02 -2.39913054e-02
      -1.55432457e-02 -3.74308228e-02 -2.19555665e-02 -1.88879799e-02
      -2.79809367e-02 -6.08851947e-02 -3.89990248e-02 1.35656519e-04
      -2.07004733e-02 2.04726569e-02 3.71133722e-02 5.80840930e-02
      -2.59270091e-02 -5.76566206e-03 -4.94195707e-02 -3.96000519e-02
      -1.24061306e-03 -3.04563940e-02 -1.21005187e-02 -2.11741263e-03
      4.40670438e-02 -1.49749164e-02 1.96231864e-02 -5.82225481e-03
      1.12940522e-03 -3.71697284e-02 -7.27023929e-02 -6.16248623e-02
      -3.98977250e-02 -9.94819868e-03 4.67199832e-02 8.88915285e-02
      3.55000794e-02 -3.30768377e-02 -5.52833267e-02 -1.11164056e-01
      -7.88875073e-02 -1.11137114e-01 -1.83194131e-02 6.12483658e-02
      -2.59376671e-02 -3.66139300e-02 4.63013686e-02 9.07669961e-03
      1.17967953e-03 -8.31306633e-03 -8.28853697e-02 -3.30055654e-02
      -3.12708952e-02 -1.97794437e-02 -9.08091664e-02 -3.87847908e-02
      -9.42183193e-03 1.03486646e-02 4.48410884e-02 2.22748574e-02
      1.53457494e-02 -1.98465381e-02 7.22359726e-03 -5.82871214e-02
      -6.11173920e-02 -2.15889327e-02 -1.94820091e-02 -1.21063264e-02
      -8.45865719e-03 1.91882942e-02 1.49842175e-02 5.51654473e-02
      -1.48906920e-03 -2.46578921e-02 -4.49717715e-02 -6.31780401e-02
      -5.00894375e-02 -6.46322370e-02 -3.72399427e-02 5.09949960e-02
      6.71625212e-02 2.22614352e-02 -1.47398310e-02 -5.09724692e-02
      -8.36316347e-02 -6.43550754e-02 -1.12488955e-01 -3.07605490e-02
      4.27657142e-02 -3.34028713e-02 -5.13584958e-03 3.77571285e-02
      2.59551276e-02 1.27802033e-03 -3.10473125e-02 -5.67503832e-02
      -5.48948348e-02 -4.17653248e-02 -1.98459234e-02 -6.87695891e-02
      -2.69807093e-02 -1.86415799e-02 -1.64046662e-03 1.64988842e-02
      -5.00705605e-03 4.01616096e-03 -3.02936118e-02 3.37519962e-03
      -4.27954681e-02 -6.54002577e-02 -2.93088723e-02 -2.19399128e-02
      -3.41283977e-02 -4.35514152e-02 1.09995836e-02 4.66186814e-02
      5.94677143e-02 1.47108166e-02 -2.12781224e-02 -5.35521172e-02
      -6.28216192e-02 -5.17339595e-02 -8.06382969e-02 -4.32489552e-02
      5.13815656e-02 3.66429724e-02 9.54418723e-03 -1.11091984e-02
      -3.97093669e-02 -5.99365868e-02 -4.81079929e-02 -1.12225540e-01
      -1.51060997e-02 3.66429724e-02 -1.58110522e-02 -1.46285142e-03
      3.01591996e-02 3.56311128e-02 -3.34851630e-02 -4.93492968e-02
      -7.17597753e-02 -7.17855543e-02 -2.24077310e-02 -1.04115447e-02
      -6.63401857e-02 -5.59163513e-03 1.32582104e-02 -2.68645603e-02
      -8.02746136e-03 -3.66690643e-02 -6.15638914e-03 -1.97866149e-02
      -5.53448312e-03 -2.60009319e-02 -3.07433698e-02 -3.32415313e-03
      -3.29726413e-02 -2.48563476e-02 -6.86408654e-02 1.29283099e-02
      2.39969064e-02 2.55556218e-02 4.52150740e-02 -3.15522891e-03
      -4.00739498e-02 -5.36307916e-02 -3.29934582e-02 -9.34898630e-02
      -1.23109426e-02 2.31499467e-02 2.63769124e-02 1.47671541e-02
      -1.06616076e-02 -2.14900114e-02 -4.60776128e-02 -5.07825762e-02
      -1.15389176e-01 2.15989463e-02 2.54418738e-02 -1.62426773e-02
      2.68280215e-04 -2.97521073e-02 3.31982411e-02 3.04757599e-02
      -3.94491442e-02 -8.04343000e-02 -7.91659877e-02 1.03649106e-02
      3.38060744e-02 -4.85391058e-02 -4.58536409e-02 8.09211843e-03
      -1.76761299e-02 -1.62245985e-02 -5.90419285e-02 5.94965462e-03
      2.64159534e-02 3.46155986e-02 3.84793431e-03 -7.04753473e-02
      -1.52676068e-02 -4.06146720e-02 -4.31429558e-02 -9.14741457e-02
      2.16766484e-02 3.05533651e-02 2.99416035e-02 7.36000016e-02
      -3.06991655e-02 -2.48002168e-02 -4.51430343e-02 -5.98637275e-02
      -1.24633819e-01 -7.14984350e-03 2.99416035e-02 1.90319791e-02
      6.87566474e-02 -3.89652029e-02 -1.47975460e-02 -2.50165965e-02
      -4.65188101e-02 -1.38095051e-01 -1.71401887e-03 1.90319791e-02
      -1.53702777e-02 -1.99857745e-02 3.62162925e-02 4.72851843e-02
      6.27342835e-02 3.54435737e-03 -2.70690247e-02 -7.53765330e-02
      -1.27800461e-02 2.39573579e-04 -6.61326274e-02 1.95135772e-02
      6.53327256e-02 3.23127583e-02 -7.16491183e-03 -3.87720801e-02
      -2.55220197e-02 2.39573579e-04 2.50331778e-02 -2.15541609e-02
      1.51210697e-02 6.47758087e-03 1.13779716e-02 -3.12787667e-02
      -1.22471042e-01 -6.47492483e-02 2.40406711e-02 3.48542929e-02
      4.88580763e-02 3.98945138e-02 -5.53595042e-03 1.48035679e-02
      -4.19778377e-02 -1.68898225e-01 -1.11817166e-01 3.48542929e-02
      7.00240768e-03 6.06171489e-02 1.35466326e-02 -5.27840946e-03
      2.92065684e-02 -3.79648432e-02 -1.36516467e-01 -5.23602329e-02
      7.51035055e-03</_>
    <_>
      -8.77541862e-03 -2.31162123e-02 9.04848054e-03 -2.07800306e-02
      -5.08963643e-03 2.66607516e-02 3.16397883e-02 8.73408765e-02
      3.72220110e-03 -1.31464629e-02 -2.68018227e-02 -4.22557741e-02
      -4.17586006e-02 -7.63268070e-03 4.03369702e-02 5.23844585e-02
      9.75195691e-02 2.03805156e-02 -3.31310816e-02 -4.14338969e-02
      -7.40013570e-02 -2.02841591e-02 1.20123206e-02 6.00845255e-02
      7.09392130e-02 8.88204351e-02 2.14953199e-02 -3.81158702e-02
      -7.29570314e-02 -5.29863536e-02 2.86580925e-03 2.95992326e-02
      4.03806344e-02 6.58714473e-02 6.83303326e-02 -1.18009755e-02
      -1.81035437e-02 -4.15161997e-02 -4.16702777e-02 -2.49349885e-02
      2.07589455e-02 5.74811641e-03 7.17284456e-02 2.89134979e-02
      1.74391386e-03 -1.80947706e-02 -3.56037542e-02 -1.82691664e-02
      4.26398143e-02 4.54171225e-02 2.27308050e-02 1.25300018e-02
      6.84182942e-02 1.44751472e-02 -1.72606073e-02 -4.90880609e-02
      -5.01650572e-02 -3.40333283e-02 3.02446391e-02 3.64361852e-02
      2.84982622e-02 7.68115595e-02 2.96050906e-02 -1.39385033e-02
      -6.11110739e-02 -7.08789229e-02 -2.79031247e-02 5.27020879e-02
      4.77978550e-02 4.40046936e-02 7.95484930e-02 2.61762310e-02
      -4.22780290e-02 -7.15309754e-02 -5.32108061e-02 -2.14036442e-02
      5.54687716e-02 5.14868163e-02 3.64560410e-02 7.00147077e-02
      1.22607863e-02 -8.13391525e-03 -3.13357525e-02 -5.70140556e-02
      -3.51987667e-02 1.32285012e-02 2.56802794e-02 6.07776232e-02
      2.44048554e-02 7.88333453e-03 -5.55277243e-02 -8.16171151e-03
      1.49116246e-03 5.55180125e-02 5.33256456e-02 1.82286799e-02
      2.00171606e-03 7.71172941e-02 -1.53310159e-02 -4.09574285e-02
      -4.58843447e-02 -4.43173014e-02 -2.53178668e-03 4.71745804e-02
      4.17783782e-02 1.19891586e-02 9.20299068e-02 7.65376783e-04
      -2.12070625e-02 -4.99142557e-02 -5.50874695e-02 -2.02628840e-02
      3.75678241e-02 4.91548814e-02 1.79144517e-02 9.40495878e-02
      -1.53803583e-02 -4.62707207e-02 -4.97846194e-02 -3.80413681e-02
      -2.61824299e-02 2.75634881e-02 2.05822848e-02 2.04668995e-02
      7.26542845e-02 1.35262385e-02 9.37956478e-03 -7.10820826e-03
      -2.40448005e-02 -5.90582415e-02 -1.10290130e-03 -1.38563439e-02
      3.04911509e-02 -3.02326027e-03 1.29171787e-02 -6.87281415e-02
      -1.35173500e-02 -5.55792358e-03 6.60159290e-02 5.00162914e-02
      3.51251513e-02 1.35787353e-02 6.97545707e-02 -2.33245734e-02
      -3.29679027e-02 -2.85103917e-02 -2.21115611e-02 5.17125428e-03
      3.48371863e-02 5.58743887e-02 6.25819527e-03 9.37436149e-02
      -7.09919119e-03 -1.33865550e-02 -3.83986719e-02 -2.19403245e-02
      -1.96033120e-02 7.70586682e-03 6.38640225e-02 1.27072157e-02
      8.28309506e-02 -1.76872239e-02 -3.66011485e-02 -3.30320075e-02
      -1.46835726e-02 -2.50893701e-02 -2.64116228e-02 2.14126743e-02
      7.31412321e-03 4.34613451e-02 8.10725987e-03 1.42235402e-02
      -9.90398508e-03 -1.60210952e-02 -2.81802025e-02 -3.14466134e-02
      -4.91339341e-02 -1.24432724e-02 8.38470366e-03 2.01175418e-02
      -6.93253130e-02 -7.31906807e-03 -6.45673135e-03 5.51093817e-02
      3.30493301e-02 2.06338540e-02 1.58718582e-02 6.42229393e-02
      -1.93017330e-02 -3.59497853e-02 -3.27446498e-03 -2.37721372e-02
      5.22929430e-03 3.54674156e-03 2.21605711e-02 1.57920308e-02
      4.99969572e-02 2.79668672e-03 -2.38065850e-02 -1.21245105e-02
      -1.66330729e-02 -1.34139443e-02 -2.52512805e-02 1.79654341e-02
      1.91694517e-02 3.84164117e-02 -6.56501483e-03 -1.15046147e-02
      -9.12870094e-03 -1.05586434e-02 -2.64810883e-02 -4.92673330e-02
      -1.76515821e-02 -5.90990391e-03 -1.44256810e-02 2.81606633e-02
      4.07229736e-02 2.63283192e-03 -1.10000176e-02 -5.07941507e-02
      -8.34634006e-02 -5.14279567e-02 -3.34303603e-02 -4.41200919e-02
      4.81993295e-02 -3.13565508e-02 -2.01673079e-02 -1.79224331e-02
      1.23963067e-02 -2.12993007e-03 -5.58320852e-03 1.45608177e-02
      5.72570376e-02 -1.76252855e-03 -3.92349735e-02 -2.08196864e-02
      -2.31291521e-02 -6.12053648e-03 -1.11739421e-02 -1.23409787e-02
      2.87410058e-02 3.05404495e-02 -1.59310382e-02 -1.71140786e-02
      -3.25927883e-02 -9.01384745e-03 -2.95484420e-02 -5.53793423e-02
      -6.90301647e-03 1.64076909e-02 2.74575781e-02 1.06807891e-02
      2.55071521e-02 -1.79706607e-02 -5.96944243e-03 -6.93083331e-02
      -9.13992375e-02 -3.74344774e-02 -6.24434371e-03 -2.29373835e-02
      5.38216233e-02 5.39971627e-02 -3.53581086e-03 -1.16238557e-02
      -8.18558931e-02 -9.20202583e-02 -3.31261158e-02 -4.26960737e-02
      -3.35762277e-02 3.00415084e-02 -4.40512858e-02 -1.79031398e-02
      3.40064941e-03 5.04808640e-03 -9.01597086e-03 -3.20560262e-02
      2.47145221e-02 3.54040451e-02 -1.52355144e-02 -3.83060463e-02
      -2.61920933e-02 7.70287123e-03 -1.66802853e-02 -2.33457834e-02
      -1.38269169e-02 4.32738885e-02 2.63142120e-02 -2.75303852e-02
      -1.95613429e-02 -3.29675600e-02 1.28164506e-02 -3.99606675e-02
      -6.07650205e-02 8.84463545e-03 3.51937860e-02 7.75350118e-03
      -3.53487162e-03 1.34961586e-02 -2.34229583e-02 -1.89230349e-02
      -7.47253522e-02 -1.06193565e-01 -2.22837273e-02 -6.04297966e-03
      -1.61548723e-02 4.76148315e-02 5.22902794e-02 -3.75387818e-03
      -3.84710655e-02 -9.65205431e-02 -1.14207886e-01 -6.44837394e-02
      -6.77076206e-02 -1.45522058e-02 7.41336793e-02 -1.81822423e-02
      8.00235569e-03 2.66354065e-02 2.67233923e-02 -4.36891280e-02
      -4.82454449e-02 7.88793247e-03 1.86853707e-02 -2.94420589e-02
      -2.77144946e-02 -1.45592690e-02 4.84435745e-02 -6.38890406e-03
      -4.71052378e-02 -2.74240877e-02 2.71819290e-02 4.47889864e-02
      -2.12770049e-02 -1.31170200e-02 -3.12449168e-02 1.00016757e-03
      -5.80162788e-03 -4.21943665e-02 7.90669757e-04 3.92175168e-02
      1.33907814e-02 -1.75066907e-02 1.42149460e-02 -2.74229608e-02
      -3.60664539e-02 -7.74543360e-02 -5.99277951e-02 -1.98905542e-02
      -3.79079999e-03 3.35851335e-03 3.73452120e-02 6.49734586e-02
      -1.72454789e-02 -4.57245931e-02 -1.13916077e-01 -1.19121373e-01
      -7.42042884e-02 -5.52470833e-02 -2.61984370e-03 8.40364397e-02
      -8.25645123e-03 2.42472067e-02 2.67960764e-02 5.57654025e-03
      -4.01985534e-02 -2.97024306e-02 -2.20406638e-03 7.10301334e-03
      -2.19515115e-02 -3.92045677e-02 2.56626192e-03 4.50660400e-02
      -2.91350530e-03 8.57422943e-04 3.93857807e-03 1.90937072e-02
      -2.87872716e-03 -4.33602743e-02 -3.71422246e-02 -1.02339527e-02
      4.07840870e-03 -8.56290397e-04 -1.30890813e-02 1.09478936e-03
      3.71344015e-02 2.59961747e-02 -2.21576821e-02 1.04070352e-02
      -8.89632944e-03 -1.36518301e-02 -4.83812802e-02 -5.10622449e-02
      -6.00308366e-03 -2.68435362e-03 2.96141487e-03 1.62167251e-02
      2.84026172e-02 -3.91933136e-03 -8.54295772e-03 -7.74034411e-02
      -9.65349227e-02 -4.89334166e-02 -5.64745069e-02 -6.88691949e-03
      4.96036969e-02 -5.29566370e-02 4.57516238e-02 3.34411189e-02
      -1.72720160e-02 -2.08430830e-03 -1.36873610e-02 1.72944590e-02
      1.84824206e-02 -5.22709265e-02 -4.40894030e-02 2.45466810e-02
      2.19003409e-02 -9.19160247e-03 1.63601264e-02 1.15766350e-04
      7.10009877e-03 -1.66123989e-03 -4.78832386e-02 -3.88891995e-02
      1.74895711e-02 1.29553312e-02 2.44478299e-03 -5.84476301e-03
      -1.34560000e-02 1.06453653e-02 9.85349249e-03 -7.92594906e-03
      1.67004745e-02 1.46720046e-02 -6.03809720e-03 -4.10842821e-02
      -4.18020263e-02 -5.01627009e-03 -2.36223452e-02 -2.00466681e-02
      1.54418936e-02 2.43008342e-02 4.57802461e-03 -1.03060771e-02
      -6.08898327e-02 -5.88460080e-02 -2.32353155e-02 -6.63169920e-02
      -1.23882911e-03 2.78088786e-02 -2.94591412e-02 1.87656507e-02
      1.25496471e-02 2.73902924e-03 -6.55802619e-03 -2.50636153e-02
      -2.19445303e-03 -3.32571715e-02 -3.22105028e-02 -3.96663025e-02
      1.72187332e-02 4.95509878e-02 2.23056395e-02 -3.64858599e-04
      -1.77006796e-02 -1.40055679e-02 -2.39833966e-02 -4.00258228e-02
      -2.08666082e-02 2.13378835e-02 2.49881949e-02 1.22518288e-02
      -2.10193153e-02 -1.91523507e-02 -2.37577334e-02 -2.72075813e-02
      7.97900930e-03 3.01261488e-02 1.31236501e-02 -3.02005056e-02
      -4.83657420e-02 -3.73908021e-02 -1.26040531e-02 -3.35631371e-02
      -2.68929992e-02 3.21677178e-02 3.93989459e-02 -8.24007299e-03
      -5.50162941e-02 -7.88055658e-02 -4.83687632e-02 -1.60077810e-02
      -4.97039407e-02 5.60317654e-03 4.61931340e-02 -1.25245648e-02
      2.51701269e-02 4.28558706e-04 -7.48911640e-04 2.89701298e-02
      -2.10168008e-02 -2.61291359e-02 -6.60978407e-02 5.18233422e-03
      1.87779113e-03 3.53739969e-02 2.67961361e-02 2.56141480e-02
      -3.07342387e-03 -3.43777128e-02 -2.96154041e-02 -3.71552445e-02
      3.49134090e-03 1.62784252e-02 5.10593019e-02 -1.96551275e-03
      8.74456950e-03 -2.08901763e-02 -5.71422502e-02 -3.32806930e-02
      -4.93169427e-02 2.11745780e-02 3.87446061e-02 4.35690433e-02
      -4.15464751e-02 -5.33304550e-02 -3.45852003e-02 -5.57461083e-02
      -5.60026206e-02 -4.20699306e-02 3.93343717e-02 6.09002858e-02
      9.82730556e-03 -9.03273672e-02 -9.01587456e-02 -5.28009087e-02
      -4.65664044e-02 -7.14007095e-02 -1.54396184e-02 6.98757917e-02
      4.98267869e-03 -1.60286222e-02 1.25747574e-02 1.63636450e-02
      4.97125350e-02 -5.89619810e-03 -8.76530353e-03 -5.75783029e-02
      2.85508321e-03 7.61468569e-03 -8.35337397e-03 -1.11481117e-04
      6.01775721e-02 2.35516336e-02 -1.12106707e-02 -3.65290977e-02
      -3.56777422e-02 7.61468569e-03 3.64844464e-02 3.96956541e-02
      4.04361542e-03 2.53009368e-02 1.31904949e-02 -4.16383184e-02
      -8.79556313e-02 -1.02927603e-01 3.00967824e-02 5.38479835e-02
      5.56422360e-02 -3.09433267e-02 -2.49290727e-02 -4.31898516e-03
      -4.94460166e-02 -1.06308825e-01 -9.82623026e-02 3.53333689e-02
      5.20227589e-02 5.43808332e-03 -5.44638522e-02 -7.98436254e-02
      -2.58497223e-02 -5.35284467e-02 -8.75371397e-02 -4.16933671e-02
      5.23206741e-02</_>
    <_>
      -1.41656576e-02 -1.38280923e-02 9.15176410e-04 1.63484607e-02
      9.30177141e-03 2.19396986e-02 2.29019541e-02 3.82239036e-02
      -6.97613414e-03 -2.28227605e-03 8.91074352e-03 5.20673301e-03
      5.68378763e-03 8.45410954e-03 4.83404001e-04 -3.92547948e-03
      2.48720273e-02 -2.28227605e-03 1.90390227e-03 1.41164986e-02
      1.20438053e-03 2.19872643e-04 -3.63980886e-03 -2.44673472e-02
      -1.87787525e-02 9.63358209e-03 5.22292126e-03 2.57504871e-03
      -5.60085662e-03 -1.11663388e-03 -9.36301146e-03 1.23185134e-02
      -3.19892429e-02 -1.78151727e-02 -1.29285071e-03 1.52286375e-02
      2.49500480e-02 1.47050814e-04 9.06698313e-03 -1.67870373e-02
      2.13377122e-02 -2.55419090e-02 -2.03788336e-02 -1.91434845e-02
      2.59740800e-02 -2.72135576e-03 -2.69143451e-02 2.51177838e-03
      1.18793724e-02 8.11936799e-03 6.06394792e-03 5.67113142e-03
      2.77774520e-02 2.95318221e-03 6.61156513e-03 -1.82574410e-02
      1.96121307e-03 -5.86000038e-03 2.13253102e-03 -6.99363509e-03
      -2.05525284e-04 2.21111495e-02 1.20793805e-02 1.94774643e-02
      -7.82960374e-03 2.29458814e-03 -2.07177214e-02 -5.03450958e-03
      -2.84957457e-02 -6.95917103e-03 1.02784997e-02 2.26338170e-02
      1.29042333e-02 1.16393465e-04 1.07625183e-02 -2.52758898e-02
      3.69314500e-03 -3.27356309e-02 -5.73435798e-03 2.74755014e-03
      2.91293617e-02 3.32692228e-02 1.79768652e-02 4.82743979e-03
      -2.37535574e-02 1.47598349e-02 -2.21420061e-02 -1.98918693e-02
      -2.92986892e-02 3.32263075e-02 -7.32044224e-03 1.03193540e-02
      1.41156064e-02 6.92885835e-03 -1.51924910e-02 -1.06776329e-02
      -8.99973419e-03 2.43693478e-02 -3.89211811e-03 4.55909967e-03
      1.08106462e-02 4.03643865e-03 -9.75604076e-03 -2.04619355e-02
      -1.30836181e-02 9.46090370e-03 2.80134808e-02 -2.02902150e-03
      3.25945653e-02 -1.79935421e-03 -1.65366698e-02 -3.77352349e-02
      -3.16960961e-02 -2.17632931e-02 -9.42551158e-03 3.42781842e-02
      3.18196379e-02 -3.81869660e-03 -1.72826108e-02 -1.58071816e-02
      -4.07376401e-02 -3.17054987e-02 -2.62530614e-02 -1.81869101e-02
      3.75707634e-02 5.34951165e-02 3.58085074e-02 1.34516060e-02
      5.20310597e-03 -3.83671634e-02 1.06833056e-02 -5.39419707e-03
      -2.88687292e-02 -3.37670743e-02 3.50232609e-02 -3.02982237e-03
      1.61385965e-02 2.00067330e-02 2.28079632e-02 -7.93735776e-03
      -2.13620923e-02 -1.64841674e-02 7.83267058e-03 -1.71529558e-02
      1.51516674e-02 1.80429053e-02 1.01625230e-02 -4.78583528e-03
      -2.05514450e-02 -9.31331981e-03 2.97030015e-03 2.16956511e-02
      -3.28171393e-03 2.96729021e-02 -1.91184739e-03 -8.09652545e-03
      -3.30283418e-02 -2.87559628e-02 5.34985540e-03 -7.12742051e-03
      2.68441029e-02 2.81763505e-02 -3.15107591e-03 -2.01543327e-02
      -2.96534169e-02 -4.34225202e-02 -2.27325521e-02 -6.35786681e-03
      -1.33403698e-02 2.88096853e-02 4.72460352e-02 2.40417961e-02
      -1.44674573e-02 -1.70994569e-02 -3.09058484e-02 9.55976360e-03
      -1.79698803e-02 -1.00284535e-02 -1.24663962e-02 3.43352519e-02
      -6.51536509e-03 2.09426843e-02 2.06888188e-02 2.11114399e-02
      -1.20072113e-02 -2.97943354e-02 -1.82227213e-02 5.27015247e-04
      -8.72726180e-03 -1.72136363e-03 2.38361061e-02 2.95297969e-02
      1.39754089e-02 -1.94888227e-02 -2.44150870e-02 8.45260546e-03
      6.69494038e-04 -4.74597653e-03 1.11644268e-02 9.48155299e-03
      9.66903474e-03 -1.24507640e-02 -2.94524152e-02 -1.69841815e-02
      7.34780915e-03 1.13011608e-02 2.65586600e-02 1.06691569e-02
      -4.89657279e-03 -1.97891612e-02 -2.93444674e-02 -2.84965318e-02
      -2.06702761e-02 -1.17654996e-02 8.78121052e-03 3.90064716e-02
      3.36725488e-02 -1.79755799e-02 -3.47592905e-02 -1.53942844e-02
      -2.03351285e-02 -3.72012481e-02 -1.22239050e-02 -1.29450876e-02
      4.15211432e-02 -6.96730847e-03 2.60803886e-02 2.54108869e-02
      1.68408472e-02 -1.94898490e-02 -2.87639536e-02 -2.33124923e-02
      1.75461266e-02 9.56569519e-03 8.87155626e-03 2.96278503e-02
      2.70773228e-02 2.62471661e-03 -2.57045217e-02 -2.63774581e-02
      -5.04917989e-04 1.40098222e-02 1.14703402e-02 1.77919529e-02
      1.19162677e-02 2.53645033e-02 -5.25485631e-03 -3.30725983e-02
      -3.45329642e-02 -2.16239342e-03 2.02307981e-02 2.56040096e-02
      1.06664961e-02 -8.03220924e-03 -9.33960080e-03 -3.15540992e-02
      -3.34269591e-02 -2.74380110e-02 -5.99295273e-03 1.36809750e-02
      2.94138659e-02 2.90314667e-02 -2.40226164e-02 -3.94330285e-02
      -3.15830745e-02 -2.72163879e-02 -9.27112065e-03 -1.82872228e-02
      -3.73728969e-03 3.27460766e-02 -3.35660460e-03 1.64315086e-02
      4.65898924e-02 1.85590237e-02 -2.81584058e-02 -3.13943774e-02
      -1.27441455e-02 1.34315006e-02 3.65007995e-03 8.69198795e-03
      2.45904736e-02 3.79612632e-02 8.65367241e-03 -3.11108902e-02
      -1.43582458e-02 5.36795659e-03 4.46505146e-03 9.48319305e-03
      6.85997447e-03 1.80566665e-02 4.30594087e-02 6.26488449e-03
      -3.16867493e-02 -1.08113335e-02 -4.27026581e-03 -8.80090334e-03
      1.18958680e-02 1.80629268e-02 2.77306768e-03 -1.33174686e-02
      -1.83917470e-02 -3.53995040e-02 -1.59440879e-02 -1.18600829e-02
      -6.77474868e-03 2.18415149e-02 2.17611119e-02 -1.22485431e-02
      -3.88502814e-02 -3.25855613e-02 -2.53653750e-02 -1.31931640e-02
      -3.64038646e-02 5.67780435e-03 4.97951582e-02 6.72102999e-03
      7.57563626e-03 5.47678880e-02 1.83389205e-02 -3.99468504e-02
      -4.22019921e-02 -6.73902966e-03 6.59270352e-03 6.16764557e-03
      1.09939333e-02 1.45662231e-02 3.18189077e-02 2.95762648e-03
      -3.42978947e-02 -1.85007937e-02 1.37479194e-02 1.59265324e-02
      1.08646592e-02 1.21169016e-02 1.46102933e-02 3.18527110e-02
      1.13223391e-02 -2.86367517e-02 -2.40277182e-02 -4.62554250e-04
      -7.35766441e-03 5.11486921e-03 1.91173889e-02 1.35180820e-02
      -1.41666317e-02 -2.35958807e-02 -2.56407317e-02 -2.04303879e-02
      -1.04418416e-02 -1.25192180e-02 2.74692588e-02 4.82205376e-02
      4.23843553e-03 -4.14283201e-02 -4.00451869e-02 -4.04655635e-02
      -1.74086429e-02 -2.92253923e-02 2.26068078e-03 4.62132059e-02
      2.12601610e-02 5.37777832e-03 4.71944883e-02 1.23302974e-02
      -4.79793027e-02 -3.38299349e-02 -1.34920506e-02 7.44100939e-03
      2.32085008e-02 2.65848115e-02 1.04911653e-02 2.43210178e-02
      8.38953443e-03 -3.65736447e-02 -1.06862290e-02 -2.87253154e-03
      -1.37972273e-03 1.87959969e-02 1.56760607e-02 1.55964661e-02
      2.55068354e-02 1.25205452e-02 -2.84297336e-02 -2.12877858e-02
      -8.87888484e-03 -4.23372630e-03 1.78546179e-02 3.13548185e-02
      1.80703569e-02 -1.35513237e-02 -1.53418118e-02 -3.06737665e-02
      -1.64938178e-02 -1.47623932e-02 -1.57188959e-02 3.05981413e-02
      4.07101586e-02 1.33325392e-02 -3.71106453e-02 -4.07740176e-02
      -4.00936194e-02 -1.36160264e-02 -2.70891301e-02 -9.19075217e-04
      3.65928859e-02 2.90253870e-02 1.76921878e-02 4.38849106e-02
      3.34299426e-03 -5.92548326e-02 -4.47200090e-02 -1.47947017e-02
      9.97377932e-03 2.86576282e-02 2.78954152e-02 2.06503756e-02
      2.22881306e-02 9.17423703e-03 -3.37292030e-02 -1.92396808e-02
      -2.71204654e-02 -1.04787871e-02 1.73297338e-02 1.27264224e-02
      2.61725523e-02 1.73629951e-02 1.12495972e-02 -2.66861506e-02
      -2.24759374e-02 -1.66314319e-02 -2.49198475e-03 2.95746047e-02
      3.44901085e-02 2.35184897e-02 -9.38653853e-03 -1.84602793e-02
      -3.69283892e-02 -1.39694121e-02 -2.20207740e-02 -1.97335873e-02
      3.17292027e-02 2.94332244e-02 9.45618376e-03 -3.34748402e-02
      -3.03835664e-02 -3.89917269e-02 -2.10285350e-03 -3.00856307e-02
      -7.70342257e-03 2.35463474e-02 4.31357957e-02 2.25468408e-02
      4.19496335e-02 1.12017971e-02 -6.80909976e-02 -6.01982772e-02
      -4.95214388e-02 -1.43240439e-02 3.53397280e-02 3.29421125e-02
      2.47566737e-02 3.17673087e-02 9.36464034e-03 -4.07188013e-02
      -4.66662161e-02 -4.32432853e-02 -1.51842404e-02 2.16229465e-02
      2.17297804e-02 2.80901231e-02 1.78553332e-02 9.75262187e-03
      -3.69946472e-02 -3.01797148e-02 -3.57772894e-02 8.34111311e-03
      3.43880765e-02 3.26065905e-02 2.18760725e-02 -2.83329003e-03
      -1.32049387e-02 -3.63393649e-02 -1.07184714e-02 -4.33709323e-02
      -4.57876548e-03 1.96786188e-02 2.29679700e-02 9.62751079e-03
      -3.77827361e-02 -2.36760229e-02 -3.80076393e-02 -9.43605416e-03
      -2.90355291e-02 7.32664298e-03 1.78595427e-02 5.93607314e-02
      2.53619328e-02 1.56308506e-02 -7.90686905e-03 -5.30548804e-02
      -5.49662746e-02 -6.48045093e-02 -3.58700790e-02 6.41253740e-02
      6.02324381e-02 3.37154791e-02 2.01205965e-02 2.07972465e-04
      -3.89385112e-02 -5.57158403e-02 -6.91985637e-02 -2.96050701e-02
      5.30651473e-02 5.20721264e-02 4.16615568e-02 5.22126211e-03
      -2.94601079e-03 -3.88047099e-02 -4.83216122e-02 -5.71377054e-02
      -8.24569911e-03 3.54689993e-02 3.82183939e-02 3.55884470e-02
      -2.96780467e-03 -1.10180862e-02 -2.84936503e-02 -3.45852040e-02
      -5.78329898e-02 -1.08584668e-02 1.83148626e-02 2.20028199e-02
      1.56280417e-02 -3.80577371e-02 -2.03063004e-02 -2.79543884e-02
      -2.26102397e-02 -3.35082598e-02 1.14673898e-02 2.12693978e-02
      7.16357082e-02 6.93398295e-03 -3.01944744e-03 -2.11986508e-02
      -5.35249747e-02 -3.96812409e-02 -4.69054505e-02 -3.57763804e-02
      5.29642738e-02 5.42747416e-02 2.24692859e-02 2.54713092e-03
      4.91209980e-03 -3.70453224e-02 -4.34992723e-02 -7.06726834e-02
      -3.72587591e-02 4.56925929e-02 6.19352274e-02 3.67482342e-02
      -5.19819744e-03 -1.35918055e-02 -3.12188249e-02 -4.09247577e-02
      -8.70276093e-02 -4.72560115e-02 3.63486856e-02 4.20431942e-02
      3.13335396e-02 -1.93065149e-03 -1.03065856e-02 -2.48410478e-02
      -2.90560834e-02 -8.30149725e-02 -4.50502038e-02 3.24771442e-02
      2.17199028e-02 1.20016690e-02 -3.39251682e-02 -1.30627053e-02
      -1.99314170e-02 -2.07766891e-02 -4.41927649e-02 -4.24864516e-03
      2.73667257e-02</_>
    <_>
      -1.41258817e-02 -3.19352821e-02 -4.05434221e-02 1.06091623e-03
      2.42969375e-02 2.99869310e-02 3.07511203e-02 3.47328074e-02
      -1.46404738e-02 -2.14953292e-02 7.25340238e-03 1.16131632e-02
      1.87864024e-02 2.69282963e-02 2.13097539e-02 -1.89448092e-02
      1.41049363e-02 -2.24979352e-02 -2.92311516e-02 3.23164798e-02
      1.14206616e-02 1.06153786e-02 2.51649562e-02 1.98799409e-02
      -3.14681083e-02 3.95503687e-03 -3.07569038e-02 -3.31698321e-02
      -1.15416609e-02 4.35456680e-03 1.09065827e-02 5.52309155e-02
      2.96289939e-02 -5.99713251e-03 -1.87141367e-03 -3.12986150e-02
      -3.86894345e-02 3.65915988e-03 3.29541937e-02 1.61788892e-02
      7.94585943e-02 3.41280475e-02 1.27765769e-03 -3.03970221e-02
      -3.83587815e-02 -1.76479504e-03 -3.69476303e-02 -8.83520488e-03
      -7.01318542e-03 1.26667712e-02 1.63976513e-02 -9.92995780e-03
      2.50394680e-02 -4.08960180e-03 6.07804177e-05 -3.91053744e-02
      2.17085574e-02 -5.61511470e-03 2.77676377e-02 -3.70054436e-03
      -3.66611890e-02 1.52581455e-02 -2.45285244e-03 5.11028280e-04
      -1.55359898e-02 1.42136794e-02 -2.22670715e-02 3.08648366e-02
      -1.23904077e-02 -2.43819300e-02 1.97946224e-02 -5.76617708e-03
      -2.48288475e-02 -2.43919846e-02 1.31523861e-02 -1.69543978e-02
      4.01530862e-02 9.79993585e-03 9.80200432e-03 3.49211250e-03
      -8.66491441e-03 -2.96275523e-02 -6.85943570e-03 1.35106724e-02
      -2.59982119e-03 6.50582537e-02 4.11384813e-02 -9.97454673e-03
      -3.38594653e-02 -3.21045518e-02 -1.85330939e-02 5.20170317e-04
      1.91643517e-02 -7.48557830e-03 -9.27235652e-03 4.59740404e-03
      -2.37031206e-02 4.39025946e-02 -1.97909046e-02 -1.25598935e-02
      2.84102862e-03 1.16435755e-02 -2.11425256e-02 -2.61490978e-03
      -9.29715205e-03 -1.94151532e-02 4.82305847e-02 -1.29470993e-02
      -1.09064626e-02 4.07080958e-03 1.10270921e-02 -3.49422731e-02
      -3.32934968e-03 -1.06185034e-03 -8.09307303e-03 6.20503873e-02
      -1.63832270e-02 -6.21068552e-02 -2.45531406e-02 -8.90909869e-04
      -3.38663049e-02 6.59802230e-03 1.33767156e-02 3.84149677e-03
      6.76361844e-02 9.68828052e-03 -2.31653582e-02 1.42814103e-03
      2.10088436e-02 -2.65733600e-02 5.65242060e-02 4.55139652e-02
      -3.05834990e-02 -3.52614745e-02 -2.40889248e-02 -2.13562883e-02
      2.80757231e-04 7.09143374e-03 1.10222157e-02 1.14796367e-02
      -3.92138638e-04 -1.15462281e-02 4.73244563e-02 -3.81041281e-02
      -6.31262874e-03 -3.73989833e-03 -2.68743897e-04 -1.60421431e-02
      4.72402759e-03 -6.19732263e-03 -6.05620770e-03 6.39597550e-02
      -1.81573313e-02 -7.86197186e-03 -2.40544230e-02 -1.08069805e-02
      -3.30256410e-02 2.37567862e-03 1.47691537e-02 7.81332795e-03
      7.11593851e-02 -3.14684305e-03 -5.69182709e-02 -3.36176082e-02
      -3.58481668e-02 -2.89006047e-02 1.10568330e-02 1.98856965e-02
      9.85578634e-03 6.97234571e-02 1.06409024e-02 -5.09558097e-02
      -3.71440686e-03 -2.29983497e-02 -2.78286841e-02 4.88554016e-02
      2.97919847e-02 -6.26235083e-03 2.96370569e-03 -9.04623047e-03
      -1.12171825e-02 -1.06069492e-03 5.82343154e-03 2.06604190e-02
      -3.48076050e-04 -3.27881463e-02 -1.87744889e-02 3.71616520e-02
      2.51212460e-03 -1.59306377e-02 -6.79425988e-03 4.71374951e-03
      9.39659588e-03 -8.04669783e-03 -1.64248999e-02 1.93990953e-02
      3.84954661e-02 7.90073350e-03 -8.32974166e-03 -3.25326622e-02
      -1.68957785e-02 -1.40587185e-02 -1.33209489e-02 -8.71407520e-03
      3.59583832e-02 5.07129095e-02 2.79750749e-02 -2.62159742e-02
      -3.48200500e-02 -2.95115206e-02 -2.85609495e-02 -1.01156421e-02
      -4.28901706e-03 1.51835140e-02 3.55150960e-02 3.58346328e-02
      -3.07265595e-02 -2.21594833e-02 -2.37420946e-02 -9.76384152e-03
      7.54520949e-03 -1.82326436e-02 -2.86038686e-02 -3.54643306e-03
      1.90008469e-02 1.35345822e-02 8.63027945e-03 1.23232752e-02
      4.74409387e-03 -7.99410790e-03 -4.23058756e-02 -4.03098725e-02
      1.97828729e-02 2.57730596e-02 5.65424282e-03 -8.03170819e-03
      -3.70559841e-03 -2.23876792e-04 -1.11157550e-02 -2.76780650e-02
      -1.33845024e-03 3.69180664e-02 2.69091744e-02 1.06553622e-02
      -2.92896070e-02 -1.08905826e-02 -7.78235774e-03 -2.67917905e-02
      -1.46417292e-02 8.58085603e-03 4.50184643e-02 3.53388749e-02
      -2.90424079e-02 -2.35590059e-02 -1.55993197e-02 -3.64922136e-02
      -3.04938257e-02 -2.19237688e-03 4.17260500e-03 2.56026797e-02
      1.68888234e-02 -2.86902282e-02 -1.30298091e-02 -1.58753190e-02
      -3.16074528e-02 -1.24579025e-02 4.41760710e-03 -2.08059233e-02
      -6.48454437e-03 -6.00730628e-03 2.12595481e-02 1.98798496e-02
      2.16903035e-02 8.85328930e-03 -1.72214732e-02 -5.32978065e-02
      -3.60444747e-02 -2.69429688e-03 1.91448648e-02 1.91938300e-02
      -3.73157067e-03 -4.47315630e-03 -5.31833526e-03 -2.31541190e-02
      -2.31488179e-02 1.40206683e-02 1.12734549e-02 2.87741181e-02
      8.40688962e-03 -2.34059412e-02 1.05800666e-02 -6.39325380e-03
      -3.20554934e-02 8.52692686e-03 8.48017726e-03 -5.46700088e-03
      1.87538117e-02 -1.78805199e-02 -4.10625385e-03 -3.27450670e-02
      -3.96907330e-02 -4.01306488e-02 5.17539261e-03 1.16013270e-03
      -9.48068406e-03 4.60218871e-03 -1.90981813e-02 6.68288581e-03
      -3.13452967e-02 -4.59355414e-02 -1.84930172e-02 -7.65749114e-03
      -3.19906548e-02 -7.11219013e-03 2.25569997e-02 2.76741032e-02
      2.75144186e-02 5.52647002e-02 2.61473227e-02 -3.37394886e-02
      -5.81259914e-02 -4.07518186e-02 -3.47350612e-02 1.44623704e-02
      2.78887171e-02 2.69744880e-02 1.25324139e-02 -5.64602483e-03
      -3.35281417e-02 -2.32605264e-02 4.40787245e-03 7.04154698e-03
      2.94301752e-02 1.10476548e-02 2.23133843e-02 4.91698785e-03
      9.05746222e-03 -3.24490592e-02 -1.67743769e-02 -5.17847482e-03
      -1.72059406e-02 1.47018544e-02 -1.50478799e-02 2.83527374e-02
      -1.01689277e-02 -2.95377318e-02 -1.98407117e-02 -1.64341554e-02
      -1.81312021e-02 -1.73660684e-02 1.07992990e-02 1.61838215e-02
      1.26343938e-02 -2.41655726e-02 -3.67888734e-02 -1.35616725e-02
      -6.72016293e-03 -3.81260589e-02 -1.31128328e-02 1.76143479e-02
      2.21692156e-02 8.08821805e-03 3.49780284e-02 1.76019967e-02
      -3.75786722e-02 -6.06062077e-02 -4.29838784e-02 -2.65907720e-02
      2.34726015e-02 3.59366499e-02 1.51631199e-02 2.07931269e-02
      1.14431186e-02 -4.36276421e-02 -2.20349915e-02 -1.01412721e-02
      -1.94993299e-02 3.44072655e-02 4.97079594e-03 2.45240163e-02
      2.26890594e-02 1.72516461e-02 -3.89461033e-02 -2.54372302e-02
      -1.01850992e-02 -5.31373452e-03 2.79105604e-02 3.53086134e-03
      3.96727249e-02 -3.62365926e-03 -1.74225252e-02 -1.60904396e-02
      -8.47636536e-03 -2.37002466e-02 -1.78656559e-02 1.44636380e-02
      9.61317401e-03 2.18433738e-02 -2.60330923e-02 -4.13634293e-02
      -1.15371719e-02 1.90681107e-02 -3.68005112e-02 -4.65836003e-03
      1.10051306e-02 2.87974030e-02 -2.07325108e-02 1.02292849e-02
      -6.77854428e-03 -4.66909222e-02 -6.08524904e-02 -3.51959206e-02
      -1.03034060e-02 3.72096933e-02 4.61144708e-02 1.74811238e-03
      -2.27833502e-02 -7.42529705e-03 -4.66592498e-02 -1.87669694e-02
      -3.96801271e-02 -1.32049760e-02 4.57859859e-02 1.46476866e-03
      2.84215566e-02 -7.58916698e-03 -1.95062126e-03 -2.76603103e-02
      -1.03821652e-02 -3.40598263e-02 -4.59959311e-03 2.98432205e-02
      1.18813757e-02 4.99213338e-02 -3.17393453e-03 -2.65518986e-02
      -1.69377197e-02 4.08857549e-03 -3.10470723e-02 -2.33953949e-02
      1.32621247e-02 1.44927027e-02 1.00422613e-02 -4.45263125e-02
      -3.68619226e-02 -1.94205716e-02 1.72761064e-02 -4.90672812e-02
      1.17452536e-02 1.44927027e-02 5.24410941e-02 -6.27941685e-03
      7.08397152e-03 -8.35542846e-03 -6.84343278e-02 -8.67283791e-02
      -6.92344606e-02 -3.77543308e-02 4.02385220e-02 4.95021492e-02
      -4.61431313e-03 -8.98908824e-03 -1.21234255e-02 -6.58905134e-02
      -4.92562950e-02 -5.40636070e-02 -2.04291232e-02 4.40417379e-02
      -1.32678114e-02 3.13116051e-02 -3.43885622e-03 1.32677273e-03
      -3.59331183e-02 -1.22060468e-02 -4.69459631e-02 8.90192948e-03
      2.18032710e-02 6.10364042e-03 5.14821969e-02 -4.40195249e-03
      -2.00379454e-02 -3.14237848e-02 5.09192096e-03 -4.28090841e-02
      1.00813527e-02 7.34252064e-03 1.59484651e-02 -2.03117356e-03
      -7.24297836e-02 -2.86955908e-02 -2.41267253e-02 1.22191734e-03
      -4.55706753e-02 4.19912003e-02 1.59484651e-02 5.59013039e-02
      5.86862094e-04 -2.91469563e-02 -2.65668333e-02 -2.34963447e-02
      -5.74647114e-02 -9.89859402e-02 -5.26910685e-02 7.37562999e-02
      8.56555626e-02 1.36796292e-02 -3.00742704e-02 -2.18989793e-02
      -5.16392998e-02 -5.64103797e-02 -8.29544142e-02 -2.35357527e-02
      7.28621706e-02 3.15340422e-02 6.03754781e-02 -1.98407546e-02
      -1.34237912e-02 -3.96922752e-02 -4.92825136e-02 -6.16538189e-02
      1.57268792e-02 3.13652568e-02 2.51840502e-02 7.21247569e-02
      -8.25399440e-03 -2.09491029e-02 -3.75770070e-02 -3.85343507e-02
      -6.88843131e-02 1.48554165e-02 2.11040750e-02 3.81718650e-02
      -3.78966471e-03 -8.57130587e-02 -2.33386606e-02 -1.42458100e-02
      -2.18680389e-02 -6.20716959e-02 2.83030272e-02 2.95030177e-02
      6.64629415e-02 -1.08217699e-02 -1.15116378e-02 -2.01287828e-02
      -1.27061848e-02 -3.10216937e-02 -6.64961338e-02 -5.28301448e-02
      6.16428889e-02 6.37128055e-02 1.32601475e-02 -1.77996345e-02
      1.61066968e-02 -3.74142341e-02 -4.55911420e-02 -9.34364200e-02
      -4.12258506e-02 6.60619661e-02 5.78352734e-02 5.74966371e-02
      -7.83757772e-03 -1.16595170e-02 -2.95694005e-02 -4.62936945e-02
      -1.18072353e-01 -4.89100181e-02 5.78326918e-02 4.37793955e-02
      6.40977994e-02 6.65552495e-03 -9.82410554e-03 -2.31287293e-02
      -3.74143049e-02 -1.18598670e-01 -5.14310114e-02 4.14701737e-02
      4.03529666e-02 -1.14455856e-02 -6.79921880e-02 -1.69640183e-02
      -3.02373921e-03 -2.13693343e-02 -7.55998492e-02 -7.60466419e-03
      3.56775261e-02</_>
    <_>
      2.58652624e-02 8.12209398e-02 5.60326502e-02 -1.75493062e-02
      -5.75841963e-02 -4.26676422e-02 -3.50605808e-02 -2.76496857e-02
      1.20638814e-02 2.36091297e-02 7.36705959e-02 3.39473784e-02
      -2.35405508e-02 -5.92220575e-02 -1.44549087e-02 -4.90188040e-03
      -1.97786707e-02 -4.02140478e-03 4.25420934e-03 2.72958744e-02
      -2.90992390e-03 -4.62357741e-04 -2.24893391e-02 -8.50211829e-03
      -1.21767982e-03 2.74598114e-02 -1.77379698e-02 -4.42127027e-02
      -1.23714679e-03 -9.41660348e-03 -2.43154517e-03 2.03858744e-02
      5.62224016e-02 1.94300897e-02 1.10378684e-02 -7.18067661e-02
      -3.95305604e-02 -6.29895367e-03 -1.95514467e-02 -2.49205902e-03
      1.85672175e-02 2.07039341e-02 2.35264860e-02 5.24896309e-02
      -2.85149328e-02 3.54018137e-02 9.10998657e-02 5.87262586e-02
      2.51650019e-03 -4.34814766e-02 -1.70505028e-02 -3.89450304e-02
      -1.24908974e-02 -1.85953174e-02 4.18654131e-03 5.19358553e-02
      1.07005425e-02 -1.00502260e-02 -1.28948661e-02 -9.52610048e-04
      -1.40693337e-02 3.18482891e-03 -2.99878214e-02 -1.99259631e-02
      -4.90516610e-03 -4.38468605e-02 -2.57914048e-02 3.76740880e-02
      2.69623697e-02 3.75329657e-03 3.05034090e-02 -4.01813798e-02
      -4.71708141e-02 -3.14498842e-02 -3.28511596e-02 1.13718472e-02
      6.09572567e-02 5.70407286e-02 -8.76119453e-03 1.75021626e-02
      -5.30394800e-02 -5.19864261e-02 1.59341134e-02 3.01522377e-04
      2.69045271e-02 6.53846934e-02 5.53515647e-03 1.82869472e-02
      6.11198545e-02 -5.33341132e-02 2.68083811e-03 9.78990495e-02
      4.70806956e-02 1.88473111e-03 -1.91275328e-02 -1.67070143e-02
      -1.27120130e-02 -6.59743696e-03 -1.58618912e-02 -2.17586495e-02
      4.40495983e-02 1.03211729e-02 2.61046495e-02 -8.08546226e-03
      1.50159243e-02 2.34725326e-03 2.74504535e-03 -2.75564063e-02
      -6.95111156e-02 -1.43000372e-02 -3.31900492e-02 4.38305661e-02
      5.48903607e-02 4.36479747e-02 2.98636276e-02 1.78600941e-02
      -7.16299266e-02 -4.03457619e-02 -4.94080931e-02 -4.67111878e-02
      4.28591222e-02 8.49738270e-02 3.33807431e-02 -8.74715578e-03
      3.42015363e-02 -2.70249955e-02 -3.32659222e-02 -4.07668836e-02
      -1.00898147e-02 1.82205029e-02 7.39759058e-02 2.12345775e-02
      2.10524965e-02 7.33751655e-02 -3.39009017e-02 1.41117442e-02
      8.80685002e-02 2.15261504e-02 1.52877010e-02 -1.30012929e-02
      -5.52930944e-02 -1.74431559e-02 1.22489538e-02 -5.10159833e-03
      -1.64412558e-02 4.13589627e-02 3.31031298e-03 3.26800980e-02
      5.49591030e-04 -2.69931518e-02 9.88974795e-03 4.18113917e-02
      1.11651025e-03 -4.74089049e-02 -7.76343746e-03 9.30646621e-03
      3.57329398e-02 2.48380266e-02 1.23876734e-02 3.92676182e-02
      4.24224287e-02 -2.32402924e-02 -5.39340004e-02 -1.04286149e-01
      -3.36889327e-02 3.44242081e-02 8.73571262e-02 6.30476233e-03
      4.97657731e-02 5.26136830e-02 -4.64719208e-03 1.03157293e-03
      -9.46909338e-02 -7.53205270e-02 -2.75174417e-02 5.84521703e-02
      1.78015158e-02 2.26904973e-02 4.68896218e-02 1.28088966e-02
      -1.35305533e-02 8.19559768e-02 2.66568102e-02 1.72207039e-02
      -9.83796548e-03 -5.78099489e-02 -2.76151374e-02 1.39829945e-02
      9.93517786e-03 -4.70960513e-03 3.32521535e-02 -1.41307842e-02
      6.80459617e-03 1.17099481e-02 -3.11816130e-02 8.82162433e-03
      4.72260118e-02 4.60281111e-02 -3.27791311e-02 -1.83392782e-02
      -1.17093902e-02 3.19179706e-02 2.95735095e-02 1.82214510e-02
      4.33882326e-02 4.50025387e-02 1.44586517e-02 -2.30145641e-02
      -7.33952150e-02 -3.15352157e-02 -4.55221569e-04 4.70928475e-02
      1.03841694e-02 5.46309873e-02 4.26704437e-02 2.66241468e-02
      2.44536204e-04 -4.79562245e-02 -5.40955737e-02 -3.81348319e-02
      1.52833834e-02 1.09831691e-02 1.61175746e-02 2.91811284e-02
      2.56161578e-02 1.32027641e-02 5.18629216e-02 8.59266706e-03
      8.18226777e-04 -1.76198427e-02 -4.03852835e-02 -2.66112592e-02
      1.86184999e-02 2.12167036e-02 2.26797420e-03 1.92499328e-02
      -1.67631377e-02 6.19082293e-03 -1.35632502e-02 -2.77480353e-02
      -2.38877954e-03 4.63947691e-02 3.28401886e-02 -1.90325584e-02
      -2.73341388e-02 -4.38823644e-03 1.65834855e-02 -6.29775022e-05
      -8.94616172e-03 3.12080309e-02 5.10479920e-02 1.76115502e-02
      -1.08945731e-03 -4.95257676e-02 -3.91358174e-02 -3.13153565e-02
      8.26068781e-03 5.67506487e-03 4.14827839e-02 5.03328480e-02
      4.53073941e-02 3.90224648e-03 -3.36845145e-02 -5.56694008e-02
      -4.83548753e-02 3.31725925e-03 1.49220601e-02 1.32826539e-02
      3.34225111e-02 3.11032049e-02 3.14591266e-02 3.50462906e-02
      1.36883939e-02 -1.51543301e-02 -2.35782880e-02 -4.42076959e-02
      -2.94699240e-02 3.23568694e-02 4.22007218e-02 -6.50971802e-03
      -2.57293880e-03 -7.57302251e-03 -2.93901600e-02 -2.12887786e-02
      -1.96189545e-02 2.04571839e-02 5.62025718e-02 2.29656436e-02
      -1.00328391e-02 -2.56763026e-02 -2.94351345e-03 -2.28471216e-02
      -2.00077202e-02 -9.29440465e-03 3.55441123e-02 5.32483011e-02
      2.22008657e-02 -2.47247657e-03 -3.74427736e-02 -3.29543091e-02
      -3.97222713e-02 7.66265846e-04 5.53174783e-03 3.47036086e-02
      4.85055745e-02 3.70958149e-02 -1.02137122e-03 -1.82245411e-02
      -4.51992266e-02 -5.02807610e-02 -1.42643380e-03 1.38827711e-02
      1.35029256e-02 3.36479507e-02 3.17497551e-02 2.11495906e-02
      2.26230975e-02 3.00127789e-02 -3.46131437e-02 -3.26810256e-02
      -2.60674804e-02 -1.10751875e-02 2.57993601e-02 3.56111415e-02
      -1.35004455e-02 -1.96681209e-02 1.60454644e-03 -2.85416842e-02
      -1.06846113e-02 -3.67027381e-03 2.32467037e-02 4.97310646e-02
      2.19688900e-02 -9.45953280e-03 -2.38019675e-02 -2.64826929e-04
      -3.49617302e-02 -3.03229224e-03 -1.31777432e-02 2.93707550e-02
      4.39506657e-02 6.35930942e-03 3.62743670e-03 -3.48225869e-02
      -3.93096730e-02 -5.11073209e-02 -1.37247925e-03 4.14631935e-03
      2.52356306e-02 4.59647663e-02 3.64115424e-02 6.53857691e-03
      -1.57934446e-02 -4.65946794e-02 -5.10376766e-02 -7.22143659e-03
      1.22210756e-02 1.26957297e-02 4.15688679e-02 3.16554755e-02
      1.71827860e-02 9.60185938e-03 3.12342495e-02 -4.68785688e-02
      -3.54187898e-02 -4.43425030e-02 -3.43695693e-02 1.37889525e-02
      3.36764120e-02 -4.88034822e-03 -1.69277396e-02 -6.40026433e-03
      -3.57650109e-02 1.13457609e-02 -8.95233173e-03 1.29867299e-02
      2.37398427e-02 8.47417302e-03 -1.91309641e-03 -2.30467692e-02
      -1.12656821e-02 -3.60464603e-02 6.98205968e-03 -1.74117237e-02
      2.64818594e-02 3.58922407e-02 3.62818455e-03 2.26498232e-03
      -2.12671515e-02 -4.14639488e-02 -5.33078685e-02 -3.96646233e-03
      4.35404154e-03 2.53975745e-02 3.77114415e-02 3.03839426e-02
      6.21076068e-03 -2.64848936e-02 -4.95078564e-02 -4.93657477e-02
      -1.00999270e-02 1.17298774e-02 2.28017922e-02 5.31846471e-02
      3.85601968e-02 2.51691062e-02 1.04454055e-03 6.10501785e-03
      -5.48988879e-02 -7.36131296e-02 -5.61677478e-02 -2.77984887e-02
      -1.78931579e-02 3.85408886e-02 1.20758368e-02 -3.28010544e-02
      -3.85925546e-02 -4.12974432e-02 -1.20473346e-02 -2.31126770e-02
      1.05459185e-03 1.40015967e-02 3.10464557e-02 1.28648139e-03
      -3.14532965e-02 -3.71585861e-02 -4.28309143e-02 2.47151172e-03
      -2.09413767e-02 1.67645682e-02 3.35520357e-02 3.19182836e-02
      -3.14426562e-03 -2.85623521e-02 -2.78928149e-02 -5.35160191e-02
      -8.25444888e-03 5.25440229e-03 2.83182152e-02 3.79848890e-02
      3.23260240e-02 -6.58926740e-03 -2.68362612e-02 -2.27268487e-02
      -4.42373417e-02 -1.72403865e-02 1.01560829e-02 3.37322503e-02
      6.60720989e-02 2.86637936e-02 2.02390309e-02 -6.91355905e-03
      -7.73585727e-03 -4.31183018e-02 -7.60695562e-02 -4.81543988e-02
      -2.80125607e-02 -4.36158990e-03 3.37010249e-02 1.58454087e-02
      -5.08641191e-02 -3.82981263e-02 -3.83258499e-02 -2.20090318e-02
      -2.62013711e-02 -2.29420932e-03 1.34108691e-02 5.25719672e-02
      1.81910043e-04 -5.44856973e-02 -5.23468703e-02 -4.22159135e-02
      -5.51619846e-03 -1.06403860e-03 2.21440587e-02 3.70149463e-02
      5.28671145e-02 -3.20762489e-03 -3.83672081e-02 -3.72677520e-02
      -5.29733598e-02 -1.62860435e-02 9.36003961e-03 2.91004125e-02
      5.01023941e-02 3.58228013e-02 -5.16300136e-03 -2.76303999e-02
      -2.91620754e-02 -4.73560765e-02 -2.46523488e-02 3.77304992e-03
      2.84185149e-02 7.77568221e-02 2.96930429e-02 1.72920842e-02
      -3.30293402e-02 -5.98141663e-02 -4.93509397e-02 -4.52556126e-02
      -1.29437651e-02 -1.60740521e-02 1.10186925e-02 6.92845210e-02
      2.23993436e-02 -5.54851219e-02 -7.28167370e-02 -5.09817787e-02
      -1.41853821e-02 -3.23120924e-03 6.35430333e-04 3.57728489e-02
      7.07740411e-02 1.23454062e-02 -5.96813112e-02 -6.80250973e-02
      -4.41028588e-02 -1.21081015e-02 -1.18853000e-03 1.68811679e-02
      5.82123175e-02 6.52725846e-02 4.47455619e-04 -3.22947837e-02
      -4.56548594e-02 -4.44461294e-02 -2.14716308e-02 -2.62532546e-03
      1.03137651e-02 6.09846711e-02 3.73896137e-02 5.85904578e-03
      -1.56471189e-02 -3.30079757e-02 -5.66784032e-02 -3.08240689e-02
      -9.08261444e-03 4.22552740e-03 5.65837212e-02 3.46042216e-02
      3.79882678e-02 -5.60002327e-02 -7.27409124e-02 -8.98325145e-02
      1.73675048e-03 -1.71066467e-02 -1.44870160e-02 8.61072354e-03
      9.09220129e-02 3.84816304e-02 -8.70109648e-02 -7.37190843e-02
      -6.66125193e-02 1.71124730e-02 3.54900071e-03 -3.36149847e-03
      2.26075593e-02 7.61540681e-02 2.71891449e-02 -7.17342570e-02
      -6.46745265e-02 -6.22978881e-02 3.47327697e-03 -1.61505537e-03
      -4.38700058e-03 2.54895110e-02 8.67692083e-02 1.71670485e-02
      -3.90629210e-02 -3.40111926e-02 -4.92460243e-02 -1.25548514e-02
      -3.99928680e-03 -7.92112667e-03 1.68885607e-02 5.83179332e-02
      2.07369728e-03 -1.26246084e-02 1.29878167e-02 -5.43306991e-02
      -3.03949062e-02 -7.45560881e-03 -3.07277567e-03 2.83561815e-02
      1.86937321e-02</_>
    <_>
      -2.27737408e-02 9.09952633e-03 2.20591146e-02 2.30362080e-02
      2.33578179e-02 -1.61321219e-02 -7.47575015e-02 -2.40748581e-02
      -2.44567338e-02 -1.39465537e-02 1.46702547e-02 2.10208353e-03
      1.21274805e-02 2.03924105e-02 -2.21893564e-02 -5.44540174e-02
      -1.53266806e-02 -1.06911566e-02 -1.51359877e-02 -1.34014748e-02
      -5.22898324e-02 1.31401932e-02 2.59738285e-02 1.13180105e-03
      -3.32916752e-02 1.66642703e-02 -2.47076023e-02 -4.04228680e-02
      -8.25487375e-02 -4.64572608e-02 1.87489688e-02 9.01011452e-02
      5.42433262e-02 2.31124479e-02 1.75605509e-02 -4.56222855e-02
      -4.39387038e-02 -2.43170261e-02 3.94489057e-02 5.19222952e-02
      9.59755108e-02 3.99409980e-02 -1.70782190e-02 -1.35927461e-02
      -3.92530337e-02 -3.56674381e-02 -2.91203312e-03 5.52276261e-02
      6.10664412e-02 3.78540531e-02 -2.69563571e-02 -8.57207328e-02
      -1.71096008e-02 -3.85502204e-02 -1.65882912e-02 -1.58341732e-02
      2.04118770e-02 1.79135744e-02 5.44251651e-02 -1.69202462e-02
      -6.38739392e-02 -1.94101501e-02 -2.33330447e-02 -2.90127750e-03
      -4.15922292e-02 -2.54029185e-02 -3.20895724e-02 7.37382844e-02
      1.21551985e-02 -2.93536317e-02 1.67348410e-03 -2.08988711e-02
      -3.75478268e-02 -7.24071786e-02 -6.32662177e-02 -1.99392065e-02
      9.94935408e-02 5.92575409e-02 6.77491911e-03 1.26488023e-02
      -6.07057894e-03 -3.73177752e-02 -1.00753671e-02 -5.80315758e-03
      3.70182469e-02 1.13902725e-01 4.57303226e-02 -2.83667725e-02
      -4.32265662e-02 -3.12797241e-02 -4.91367169e-02 3.91292050e-02
      7.67421797e-02 6.38616905e-02 3.20849307e-02 -4.67246659e-02
      -5.10981753e-02 -2.75147464e-02 -6.44529164e-02 -3.47044617e-02
      1.05827972e-02 3.21244374e-02 1.48246037e-02 3.90634611e-02
      -1.30159110e-02 -1.21543137e-02 -1.43677127e-02 -4.76138517e-02
      -1.51357278e-02 -3.70978154e-02 -1.55488374e-02 -3.98984700e-02
      4.32279259e-02 2.77579073e-02 1.21552246e-02 1.20621733e-02
      -3.80366743e-02 -6.50779679e-02 -6.68791533e-02 -5.32920770e-02
      -5.82603104e-02 3.80079150e-02 6.97096437e-02 1.94995629e-03
      6.45645857e-02 2.47996319e-02 -1.51214562e-02 -7.64605124e-03
      -1.38796831e-03 -3.36413682e-02 7.65827745e-02 4.14451100e-02
      -3.05765476e-02 -4.15019244e-02 -1.30263353e-02 -5.47206476e-02
      4.72676829e-02 5.82167841e-02 6.16483055e-02 4.01812568e-02
      -4.60980088e-02 -6.30456284e-02 -2.37410888e-02 -7.85955340e-02
      -2.87970472e-02 2.86534578e-02 2.13743150e-02 1.21416943e-02
      2.29187571e-02 -4.62136511e-03 -3.60758416e-02 1.66049860e-02
      -3.41218971e-02 -1.64009593e-02 -2.51516346e-02 -1.13382190e-02
      -4.32198122e-02 3.35295014e-02 3.66383456e-02 -1.39048342e-02
      3.47682461e-02 -7.92104867e-04 -5.50952032e-02 -6.54167309e-02
      -5.90733029e-02 -4.91956063e-02 4.28982414e-02 4.56818156e-02
      7.83678610e-03 5.16552441e-02 1.70416553e-02 -1.60013661e-02
      -3.86593267e-02 -3.89030091e-02 -3.01998723e-02 5.60612939e-02
      -1.77195240e-02 -2.71179490e-02 -1.77902561e-02 2.05358230e-02
      -3.51121612e-02 3.10822483e-02 3.51120196e-02 5.51969968e-02
      1.68050192e-02 -4.49517071e-02 -5.70119768e-02 -1.15425354e-02
      -3.85223217e-02 1.56561788e-02 2.74478067e-02 5.21566393e-03
      2.41170097e-02 -1.07999975e-02 -2.49442719e-02 -1.57541391e-02
      1.75688528e-02 1.98539887e-02 1.06342863e-02 3.29418690e-03
      4.58789850e-03 -1.93852466e-02 -1.12872832e-02 -1.45869665e-02
      5.28100645e-03 1.55819124e-02 3.42045054e-02 -3.01035400e-02
      -1.77031793e-02 -3.27127725e-02 -4.04072702e-02 -6.73139375e-03
      -2.53250469e-02 1.77342817e-02 1.34400243e-03 3.92645486e-02
      -3.04444320e-03 -1.71257630e-02 -5.75130954e-02 -2.25824509e-02
      -1.59209836e-02 -6.10583350e-02 -3.26294377e-02 -3.06562185e-02
      4.56793755e-02 -7.36127840e-03 2.00932119e-02 3.27888764e-02
      3.18326801e-03 -2.24313233e-02 -3.39099430e-02 -6.17531985e-02
      2.94534722e-03 1.14363013e-02 7.94093963e-03 7.56072253e-03
      -2.07048748e-02 1.54058717e-03 -2.70799715e-02 -2.79476531e-02
      2.30371967e-04 1.65771507e-02 3.96689102e-02 -6.10746630e-03
      5.75006520e-03 1.27551425e-02 9.60684661e-03 -3.32393050e-02
      -4.98571508e-02 -1.67562786e-04 6.41830359e-03 2.46098917e-02
      -8.76200292e-03 -7.22708530e-04 -8.17069132e-03 -1.34189622e-02
      -5.22550307e-02 -5.68551235e-02 1.17797293e-02 -1.58448536e-02
      3.71462293e-02 2.68933550e-03 -2.39194743e-02 -4.82332259e-02
      -5.19383028e-02 -3.40526104e-02 -4.08309363e-02 -2.95414850e-02
      -3.52611989e-02 3.32762264e-02 -4.19719554e-02 -4.12800757e-04
      4.70725037e-02 1.44502595e-02 1.62863056e-03 -3.34867127e-02
      -5.49326614e-02 -1.56035041e-02 -3.75804491e-02 -2.34757140e-02
      -4.50249761e-03 -3.29563860e-03 -4.86956770e-03 -7.65423803e-03
      -8.73314776e-03 1.06084784e-02 -5.53099019e-03 -1.28004299e-02
      -1.76137462e-02 1.54364656e-03 1.13024050e-02 3.64730996e-03
      -3.06031741e-02 -1.82125289e-02 -3.09934700e-03 -2.18206905e-02
      8.71092919e-03 -5.10366680e-03 -7.73821666e-05 -1.13887172e-02
      -1.07634282e-02 -5.89683764e-02 -3.74673009e-02 -4.73382324e-03
      -3.65400724e-02 2.82384101e-02 1.34677105e-02 -6.54803030e-03
      -4.79939692e-02 -6.75645843e-02 -5.31692207e-02 -2.44382545e-02
      -4.92009260e-02 -4.88100871e-02 5.16686440e-02 -2.96730399e-02
      -1.60840154e-02 4.32247296e-02 9.25045926e-03 -3.01946839e-03
      -2.80639157e-02 -4.30255309e-02 -3.87179367e-02 -5.48828915e-02
      -1.94077175e-02 -7.93069974e-03 1.42570501e-02 -2.07287688e-02
      -2.27125231e-02 -4.09966960e-05 1.53657487e-02 4.41511581e-03
      -1.94298495e-02 -1.07278544e-02 1.20974490e-02 1.01591814e-02
      -5.30407880e-04 -3.29397395e-02 -2.50737313e-02 -7.72835361e-03
      -6.14865264e-03 -1.13472845e-02 -9.14043933e-03 2.21839231e-02
      6.44441042e-03 -3.09631824e-02 -4.31300886e-02 -3.12863626e-02
      -2.47508921e-02 -2.94611324e-02 2.30084974e-02 4.05716971e-02
      1.26793506e-02 -3.41107771e-02 -7.86944628e-02 -3.81473228e-02
      -2.13933680e-02 -6.79841340e-02 -2.78540570e-02 4.12872359e-02
      -3.43911946e-02 -4.78583872e-02 3.62985060e-02 1.67107340e-02
      5.57271484e-03 -3.80109437e-02 -3.74429636e-02 -5.38684130e-02
      -3.40955891e-02 -1.38022937e-02 -3.05036567e-02 1.21782655e-02
      2.54286546e-03 -6.92794425e-03 1.73326079e-02 -8.13633390e-03
      -2.36845873e-02 -2.17306614e-02 -2.13256869e-02 -2.34827399e-03
      2.14006323e-02 1.38933118e-02 -1.97403170e-02 -2.44349595e-02
      -2.32390463e-02 -2.68221571e-04 -5.66130411e-03 1.28332665e-02
      2.42262911e-02 1.22984098e-02 -1.63820125e-02 -2.89735571e-02
      -3.27796042e-02 -4.54223044e-02 -2.24855654e-02 2.56619584e-02
      3.21670584e-02 1.23493653e-02 -1.68767124e-02 -7.48183429e-02
      -3.22961248e-02 -1.51532134e-02 -6.69426769e-02 -9.70191322e-03
      3.29945348e-02 -4.21354175e-02 -3.48274261e-02 3.09805721e-02
      1.81410592e-02 7.55521515e-03 -1.19855413e-02 -2.30944883e-02
      -3.13802436e-02 -2.89346855e-02 -2.82315183e-02 -1.88757479e-02
      -4.23101475e-03 2.10389756e-02 1.87028237e-02 1.03948098e-02
      -1.78769361e-02 -1.50067778e-02 -2.68495530e-02 -2.81173866e-02
      -2.95004947e-03 9.04473383e-03 1.43620055e-02 1.15268826e-02
      -1.72340833e-02 -3.47131342e-02 1.86992611e-03 9.97780450e-03
      1.97161585e-02 3.02665811e-02 -4.40711109e-03 -2.57901102e-02
      -2.23205574e-02 -2.08277255e-02 -4.77942750e-02 -1.48198912e-02
      2.00095605e-02 2.39844732e-02 6.71083992e-03 -1.89221408e-02
      -5.73119186e-02 -3.10884565e-02 -2.11584009e-02 -7.20370859e-02
      1.19310739e-02 2.91448198e-02 -1.81329343e-02 7.59138307e-03
      4.05132286e-02 3.20623703e-02 5.60123241e-03 -2.57940907e-02
      -4.76363339e-02 -3.53111625e-02 -2.00339165e-02 -1.70893930e-02
      7.07863551e-03 6.86180871e-03 1.38496859e-02 2.01874203e-03
      -2.05412209e-02 -3.19832303e-02 -1.33796688e-02 -1.81108210e-02
      -3.78829846e-03 4.41587158e-03 1.54645257e-02 2.14823219e-03
      -1.27999857e-02 -2.28203200e-02 -6.42572045e-02 2.12749606e-03
      2.66813338e-02 2.22578105e-02 2.55780276e-02 -1.63544156e-02
      -3.30609269e-02 -3.43471691e-02 -2.77401544e-02 -6.78630546e-02
      -3.44856153e-03 3.21108177e-02 3.12480815e-02 1.43085152e-03
      -4.31258380e-02 -4.16278243e-02 -3.89442965e-02 -4.39253263e-02
      -8.94550458e-02 3.52457464e-02 3.25189419e-02 -9.67881409e-04
      2.45513711e-02 -9.18865029e-04 2.88485065e-02 2.88664680e-02
      -3.58484574e-02 -7.73033649e-02 -3.89270820e-02 1.11923944e-02
      2.38829907e-02 2.38659382e-02 -3.76993194e-02 1.05906418e-02
      -1.28933904e-03 -4.57419679e-02 -8.06692392e-02 -9.62060038e-03
      2.71298066e-02 4.44307812e-02 4.45679240e-02 -4.03698422e-02
      -1.01131648e-02 -2.27274578e-02 -6.55104071e-02 -1.04902625e-01
      -2.19493711e-04 4.02657166e-02 4.91064936e-02 4.77267168e-02
      -5.38212247e-02 -3.63414437e-02 -3.43820043e-02 -7.49201328e-02
      -1.15243323e-01 9.99842887e-04 5.06437384e-02 4.89545129e-02
      3.88966203e-02 -8.22195560e-02 -3.64191383e-02 -2.77732220e-02
      -6.10684901e-02 -1.20592877e-01 8.14645458e-03 4.83740680e-02
      1.88962240e-02 -1.17147006e-02 1.02048041e-02 1.65611692e-02
      5.07363416e-02 -1.72237102e-02 -5.44888265e-02 -3.19931805e-02
      1.21877287e-02 4.05417681e-02 -2.01341826e-02 -3.70058715e-02
      2.30972990e-02 2.74116304e-02 -4.33141962e-02 -1.09994791e-01
      -3.85863520e-02 3.97682823e-02 6.18562289e-02 2.69954372e-02
      -3.61337140e-02 -1.20791616e-02 1.19615113e-02 -5.71689159e-02
      -1.55999124e-01 -8.14167634e-02 6.08245581e-02 6.02274984e-02
      1.71337966e-02 -2.75738947e-02 -2.51073036e-02 6.12439867e-03
      -6.12643175e-02 -1.55537218e-01 -9.05474648e-02 6.59387931e-02
      4.94015031e-02 1.87009405e-02 -4.86045778e-02 -3.13063301e-02
      8.71635601e-03 -5.63002713e-02 -1.36271968e-01 -3.13690342e-02
      4.83346544e-02</_>
    <_>
      5.85968606e-03 1.68587677e-02 -5.77888004e-02 -1.84086133e-02
      4.91598807e-03 -1.32484715e-02 -3.36274542e-02 -1.86139178e-02
      1.13727925e-02 1.79025009e-02 5.44224344e-02 -1.06025506e-02
      1.75024141e-02 7.94679020e-03 -3.10802963e-02 -8.93222392e-02
      -6.94061667e-02 1.48141161e-02 4.94881310e-02 2.71761101e-02
      3.95904807e-03 2.32116394e-02 -3.55756618e-02 -5.57683557e-02
      -9.61802304e-02 -4.27508615e-02 4.01728228e-02 3.81820165e-02
      1.74441207e-02 3.24270651e-02 -4.26455364e-02 -3.25533771e-03
      -2.57085580e-02 -6.56672269e-02 -5.43285720e-02 7.50102326e-02
      7.55696148e-02 5.56567423e-02 7.45124370e-02 -3.83369662e-02
      1.84460264e-02 -6.39833882e-02 -7.49035031e-02 -6.36594817e-02
      5.80065437e-02 2.31780624e-03 1.89602934e-02 -2.65374742e-02
      -6.43940875e-03 2.16974528e-03 -2.97685564e-02 -3.57628390e-02
      2.46567540e-02 -3.35014961e-03 2.62260810e-02 3.74810807e-02
      1.06310528e-02 1.67606082e-02 1.18848355e-02 -2.49383114e-02
      -6.64115176e-02 -2.12039147e-02 7.12311734e-03 3.05988584e-02
      8.14205687e-03 -2.36896425e-03 4.30225348e-03 -1.57606192e-02
      -3.27990204e-02 -4.41671424e-02 -5.90411341e-03 3.36349569e-02
      8.68017972e-03 8.01848527e-03 2.47136168e-02 -7.59553444e-03
      3.62021942e-03 -3.01969647e-02 -3.79585065e-02 -6.29791897e-03
      3.97335887e-02 9.29212943e-02 7.29070604e-02 4.73099835e-02
      -3.00786924e-02 2.72162333e-02 -6.34436309e-02 -6.28065765e-02
      -7.35821798e-02 5.38501367e-02 -1.51553878e-03 4.11645696e-02
      -2.94847935e-02 -1.18209200e-03 1.34033551e-02 -1.48214214e-02
      -3.44723016e-02 2.27420516e-02 1.13935312e-02 -9.78484470e-03
      4.82748225e-02 -3.46331799e-04 1.75028685e-02 1.52865462e-02
      5.60920639e-03 -1.44723076e-02 -3.18103493e-03 -1.82656292e-02
      -5.18620247e-03 1.28566362e-02 -4.20461968e-03 6.69327285e-03
      4.31233132e-03 2.39135567e-02 -8.37248936e-03 -3.05930525e-03
      -1.90190431e-02 -1.85835045e-02 1.74753163e-02 1.35307433e-02
      1.16575500e-02 -1.34074027e-02 3.59713798e-03 -5.04170172e-02
      1.67739950e-02 1.72860883e-02 6.34490997e-02 7.81106502e-02
      2.22950000e-02 -4.36981395e-02 2.38088164e-02 -2.89118364e-02
      -6.13088720e-02 -8.81452784e-02 3.36567052e-02 1.87609287e-03
      3.09050437e-02 -8.95889848e-03 2.18852144e-02 6.49945484e-03
      -1.96196157e-02 -3.43914665e-02 1.21157058e-02 -1.32669751e-02
      -6.00707484e-03 2.71230508e-02 -4.45045251e-03 3.58462408e-02
      6.44468749e-03 1.75411552e-02 -2.47683655e-02 2.67670117e-02
      -1.36078438e-02 3.37314047e-02 -6.32203836e-03 -2.30766740e-02
      3.34281102e-02 1.97248608e-02 3.11130658e-02 -4.22964357e-02
      -2.06712540e-03 7.39171170e-03 -5.51123638e-03 3.22380965e-03
      8.06372892e-03 2.51759514e-02 -3.62889368e-05 4.65670833e-03
      -5.53054065e-02 -5.75764384e-03 3.73490378e-02 4.40927297e-02
      1.47449709e-02 3.66458273e-03 -6.07819110e-03 -2.52914644e-04
      -4.31777276e-02 -5.14078178e-02 -8.57556462e-02 2.74166763e-02
      1.02143744e-02 3.06538083e-02 1.30357509e-02 1.93587709e-02
      5.10821491e-03 -3.70440818e-02 -4.84920368e-02 5.94280718e-04
      2.53444351e-03 6.84997998e-04 1.59901623e-02 4.89110174e-03
      1.79050732e-02 4.75680875e-03 3.71280545e-03 -2.04433724e-02
      6.24659983e-03 2.54983269e-03 2.61502303e-02 -1.26561495e-02
      9.24172997e-03 3.79132032e-02 8.59119557e-03 -8.55902024e-03
      -3.82755809e-02 -1.27575947e-02 2.12947782e-02 2.50967778e-02
      4.84566111e-03 2.63442099e-03 1.15292687e-02 -3.65148298e-02
      -4.08637114e-02 -3.10118739e-02 -7.64732482e-03 4.47667986e-02
      7.53448233e-02 -7.38464063e-03 -6.35446468e-03 1.44125463e-03
      -6.82216436e-02 -6.39851540e-02 -4.70616892e-02 -6.29235953e-02
      7.50525743e-02 4.17430745e-03 4.03883122e-02 2.84136143e-02
      3.02317459e-02 3.38962534e-04 -4.49926965e-02 -5.11993766e-02
      -1.23820705e-02 -2.51434837e-02 -2.24975143e-02 -1.32602751e-02
      -2.27684807e-02 5.42142941e-03 1.76677331e-02 3.62935057e-03
      2.16767918e-02 3.09283305e-02 -1.43017443e-02 -5.70582040e-03
      -2.52712090e-02 -8.39461666e-03 1.74918622e-02 -1.22148953e-02
      -3.83612923e-02 -2.93130986e-03 3.94847654e-02 3.39525379e-03
      3.70300859e-02 -9.99015942e-03 -1.52767366e-02 -2.50457879e-02
      -5.74089028e-02 -7.18302503e-02 -6.47093216e-03 1.02049084e-02
      6.94274977e-02 9.65607613e-02 -2.25462019e-03 -4.71576490e-02
      -4.18507122e-02 -6.83187619e-02 -8.20458233e-02 -4.41552624e-02
      -2.52334606e-02 9.96338129e-02 -5.09233698e-02 1.85272936e-02
      7.44583383e-02 8.23936313e-02 3.68213765e-02 -5.80306612e-02
      -6.47752434e-02 -3.62392217e-02 -6.13287240e-02 -3.60704809e-02
      -5.95381260e-02 -3.90635990e-02 2.94469502e-02 5.58689311e-02
      1.50231766e-02 3.53081748e-02 2.08209809e-02 -2.25488842e-02
      -8.74527730e-03 -4.22240794e-02 -2.34273933e-02 1.61124300e-02
      -9.53175593e-03 -1.65383965e-02 -1.10000512e-02 2.49905940e-02
      1.63287278e-02 2.91007496e-02 -2.31595375e-02 -1.60334427e-02
      -1.56491809e-02 -6.40039518e-02 -6.75716922e-02 -2.63829110e-03
      -2.00428478e-02 5.68985157e-02 8.05889443e-02 -1.77269969e-02
      -5.83829843e-02 -5.62467091e-02 -8.56480002e-02 -8.45003054e-02
      -6.11447766e-02 -3.21278833e-02 9.80343893e-02 -6.72985613e-02
      1.43733658e-02 7.11224750e-02 6.75742179e-02 6.59005195e-02
      -1.71527080e-02 -5.15555926e-02 -4.68495786e-02 -5.48773259e-02
      -3.47631313e-02 -6.47900477e-02 -4.58074920e-02 2.60474533e-02
      6.41381592e-02 2.29263362e-02 4.64448854e-02 3.18110436e-02
      -2.01910511e-02 3.27750342e-03 -5.84366359e-02 -4.05246951e-02
      -1.55373756e-03 -2.25415248e-02 -1.86122861e-02 7.98785500e-03
      2.67023761e-02 1.94210615e-02 3.00099067e-02 -3.32259871e-02
      -2.61738990e-02 -4.60058935e-02 -7.66282529e-02 -6.96554780e-02
      7.16452952e-03 -1.39529351e-02 5.17740175e-02 1.12445600e-01
      -1.91702880e-02 -7.55598918e-02 -7.47796744e-02 -1.11414969e-01
      -9.38951597e-02 -6.31086826e-02 -3.12012676e-02 1.07552327e-01
      -3.49972621e-02 3.10357846e-02 6.74871132e-02 3.46098319e-02
      3.51518467e-02 -1.00298841e-02 -3.60828452e-02 -3.70964520e-02
      -2.27149725e-02 -2.46847775e-02 -3.44174653e-02 -3.88011597e-02
      1.54298460e-02 4.15164828e-02 2.90265512e-02 2.72326916e-02
      3.32265459e-02 -2.88546458e-02 -1.15769787e-03 -3.42866071e-02
      -4.78536300e-02 -1.06084216e-02 -1.72511116e-02 -5.64527977e-03
      -7.03408150e-03 3.43348198e-02 9.17646661e-03 4.84940782e-02
      -1.15180640e-02 -6.99286684e-02 -3.00330147e-02 -5.82292937e-02
      -5.30323647e-02 -1.23812007e-02 -2.95596826e-03 4.10255007e-02
      9.60481688e-02 -1.62561387e-02 -8.35646689e-02 -7.37004802e-02
      -8.93182606e-02 -6.76527694e-02 -6.84319884e-02 -1.89731102e-02
      8.74419510e-02 -4.67599183e-03 6.02112561e-02 6.82476610e-02
      3.17770056e-02 3.87953175e-03 -3.00194938e-02 -7.36210793e-02
      -5.03589287e-02 2.40185461e-03 -1.48767801e-02 -1.73756515e-03
      -6.35434315e-03 3.54915932e-02 2.67156810e-02 5.34654781e-03
      9.64642875e-03 2.43960135e-02 -3.16552967e-02 -1.80276055e-02
      -1.43193966e-03 -1.12025430e-02 -2.84663052e-03 1.78946611e-02
      -7.36026419e-03 7.11070234e-03 2.51317527e-02 -8.04500468e-03
      1.83680430e-02 1.71278771e-02 -2.26785745e-02 -2.99142972e-02
      -2.89919432e-02 -3.04434802e-02 -1.86198223e-02 -2.16192920e-02
      1.83680430e-02 4.26360331e-02 -6.44401368e-03 -6.88020736e-02
      -4.29721363e-02 -5.21883480e-02 -4.58395183e-02 -6.89456984e-02
      -1.67041570e-02 5.66623397e-02 3.08657214e-02 3.20322812e-02
      5.39089292e-02 3.44407782e-02 -1.31942714e-02 -5.23655266e-02
      -1.04692563e-01 -6.16780408e-02 9.16606002e-03 2.49611076e-05
      -6.35575969e-03 1.84426326e-02 1.03136217e-02 5.11767669e-03
      -2.25076564e-02 -3.99090946e-02 1.24579305e-02 -9.49360244e-03
      2.63010571e-03 -1.85705256e-02 -9.84288473e-03 -1.10367248e-02
      5.66911092e-03 -1.59234088e-02 -1.81157142e-04 2.62441114e-02
      6.50260923e-03 3.61840683e-03 2.03533154e-02 1.10855279e-03
      -3.38383093e-02 -1.93387028e-02 -3.27504147e-03 8.66356585e-03
      1.69163458e-02 2.57974933e-03 5.07811084e-03 9.23402607e-03
      -2.21419949e-02 -2.99008097e-02 -3.13701704e-02 -3.76552977e-02
      -3.62440422e-02 3.14767659e-02 5.84671134e-03 4.59702276e-02
      4.10018526e-02 5.78628480e-03 1.35337394e-02 4.16033482e-03
      -6.27943799e-02 -1.31620005e-01 -6.96370155e-02 3.25563364e-02
      2.58459784e-02 1.53351473e-02 3.04292014e-04 3.03521776e-03
      -1.98316853e-03 -3.76385488e-02 -9.51194093e-02 -8.97232443e-03
      1.66385192e-02 1.72060244e-02 -6.24068268e-03 -3.17611434e-02
      -1.15234982e-02 -1.59282400e-03 -1.74691398e-02 -3.87487970e-02
      1.51383290e-02 9.58040543e-03 1.04419747e-02 3.31658237e-02
      -3.48462351e-02 -3.03647593e-02 -6.72313850e-03 -1.48925008e-02
      -1.05096558e-02 2.50565670e-02 5.23930462e-03 -1.96683290e-03
      2.90259216e-02 -1.94783509e-02 -2.85803434e-02 -9.95250791e-03
      -3.36339734e-02 -2.67163981e-02 4.96972427e-02 -7.76441360e-04
      5.46211526e-02 2.28346381e-02 7.48615200e-03 7.99248181e-03
      2.81833466e-02 -3.45602669e-02 -1.17996700e-01 -7.89713264e-02
      2.71125715e-02 2.12778915e-02 -7.83225405e-04 2.89335451e-03
      1.04291691e-02 2.46290863e-02 -8.47223308e-03 -9.72246975e-02
      -5.05662337e-02 2.12778915e-02 1.44121451e-02 -2.41568051e-02
      -8.21553357e-03 -4.02030861e-03 2.35503651e-02 -8.42343550e-03
      -5.13247363e-02 -4.17166725e-02 2.34315004e-02 7.46459514e-03
      8.92398413e-03 3.16655310e-03 -1.18934428e-02 2.00648252e-02
      -1.24614229e-02 -2.01194696e-02 -3.35138366e-02 7.46459514e-03
      -1.11634238e-02 2.06347462e-02 2.35313643e-02 -2.01915242e-02
      1.62562355e-02 -1.25844078e-02 -2.38562748e-02 3.72653939e-02
      -1.04097221e-02</_>
    <_>
      4.30031819e-03 1.01931840e-02 -2.88628135e-03 2.39985101e-02
      -2.20402889e-03 -3.87421530e-03 -1.68276392e-02 1.99132715e-03
      -7.18952483e-03 7.54556013e-03 1.65536869e-02 -6.14758860e-03
      2.08017491e-02 -1.96081996e-02 -8.95778742e-03 -2.03412902e-02
      1.04690043e-04 -1.53050805e-03 -4.56321333e-03 4.96866601e-03
      -8.40848032e-03 1.86155383e-02 -1.55075332e-02 -1.04962438e-02
      -1.57480296e-02 -4.07154765e-03 4.76050796e-03 -8.40949081e-03
      2.99548581e-02 -4.76965355e-03 2.37073619e-02 -2.02038065e-02
      -1.18194250e-02 -2.10352447e-02 -1.96040571e-02 -1.23554161e-02
      -3.13807977e-03 1.99625362e-02 1.51249459e-02 1.61958952e-02
      -2.12402046e-02 -3.75407673e-02 6.15264615e-03 1.64699852e-02
      1.19091477e-02 1.14937918e-02 7.43428245e-03 -2.11012037e-03
      4.50374465e-03 -1.97577644e-02 -9.39229410e-03 -2.52606720e-03
      1.03076594e-02 2.95192585e-03 -8.97618663e-03 1.73711870e-02
      1.28147025e-02 7.88403954e-03 -2.63968389e-02 -7.16066966e-03
      3.54465423e-03 1.92378042e-03 -2.02480215e-03 8.26267619e-03
      1.11836800e-02 1.20341508e-02 6.22234261e-03 -1.08329272e-02
      -4.41233348e-03 -2.18102578e-02 -2.03681104e-02 -7.81028206e-03
      -1.48359975e-02 3.19423601e-02 -1.00812269e-02 -2.92394962e-03
      -4.41304548e-03 -2.29569618e-03 -2.09152736e-02 -2.75668167e-02
      -2.55864020e-03 -1.91650093e-02 3.33428904e-02 5.15797734e-02
      9.80886910e-03 -4.65646992e-03 -3.21763642e-02 -9.05557629e-03
      -1.13218818e-02 -2.58809943e-02 -4.31602541e-03 2.49734003e-04
      6.28063222e-03 -9.92086157e-03 -1.56712681e-02 -4.44849371e-04
      7.03063933e-03 9.93824191e-03 -1.81867264e-03 -2.72717457e-02
      6.08844915e-03 1.21338638e-02 -4.11967048e-03 -1.30581390e-02
      -5.15967142e-03 1.32940868e-02 3.18800274e-04 -9.00601503e-03
      -4.26972844e-03 1.08580701e-02 2.58583259e-02 1.48424869e-02
      1.96151529e-03 -1.01309447e-02 -2.42513455e-02 -3.43897268e-02
      -2.99220122e-02 -1.73663329e-02 9.29827895e-03 2.51385439e-02
      6.66229008e-03 5.54439984e-03 4.09990735e-03 -5.12687955e-03
      -3.51388715e-02 -2.43488215e-02 -8.72215070e-03 2.76445039e-02
      5.58484867e-02 2.43410356e-02 -1.58001960e-03 -3.34278941e-02
      -1.24138724e-02 -6.43613786e-02 -8.50274693e-03 1.41064884e-04
      -2.96664648e-02 9.00248718e-03 -1.07836199e-03 -1.90897118e-02
      -7.29793031e-03 6.10200781e-03 6.13806956e-03 7.32661923e-03
      -6.35408005e-03 8.32431484e-03 -3.50361574e-03 -1.21735074e-02
      -1.93390530e-02 -6.63097389e-03 9.67353210e-03 -2.07048887e-03
      -9.77654941e-04 -9.95314866e-03 2.41208393e-02 1.71321519e-02
      1.90090425e-02 4.09539323e-03 -2.04811580e-02 -3.05898879e-02
      -2.80242413e-02 -3.30770873e-02 -1.66374873e-02 2.18062848e-02
      4.72313017e-02 3.07872314e-02 4.24343534e-03 -2.02463455e-02
      -3.46710868e-02 -5.94946779e-02 -3.12354863e-02 -2.30665482e-03
      4.96834777e-02 4.15574498e-02 4.32298928e-02 3.23266402e-04
      -4.13071401e-02 -6.46355823e-02 -6.32205009e-02 -3.85220721e-03
      3.88586335e-02 2.44967900e-02 -1.43273659e-02 -2.27003563e-02
      -1.68005563e-02 -2.71622371e-02 2.39656633e-03 5.64239686e-03
      1.89517457e-02 3.08425482e-02 3.79881896e-02 -1.08614629e-02
      -3.11733410e-02 -2.04964001e-02 -1.04788896e-02 2.54763919e-03
      1.19198521e-03 1.59467962e-02 5.99641027e-03 2.83789709e-02
      6.90212892e-03 1.24483965e-02 -3.88537627e-03 -1.64722968e-02
      -2.59715337e-02 -1.97813362e-02 -2.79077552e-02 -1.39509067e-02
      2.85152085e-02 5.65179549e-02 5.56669682e-02 -1.13628758e-03
      -2.09243950e-02 -4.87803146e-02 -6.41091987e-02 -4.77804206e-02
      1.67615823e-02 5.72880469e-02 4.42257039e-02 3.11602261e-02
      -1.58605613e-02 -3.47265303e-02 -7.04878941e-02 -6.07611202e-02
      -1.10077076e-02 5.44141233e-02 2.73770895e-02 -1.84739809e-02
      -2.68295463e-02 -2.76381392e-02 -5.38883358e-03 1.82331353e-02
      1.18915113e-02 2.69218851e-02 3.45801860e-02 4.05854546e-02
      -1.84530430e-02 -3.31003815e-02 -1.29676042e-02 1.62999891e-02
      1.72877479e-02 4.54293704e-03 1.47122275e-02 1.53997801e-02
      3.26845460e-02 -2.47171614e-04 9.69159231e-03 -2.47188937e-03
      1.66581967e-03 -1.56131042e-02 -2.01420262e-02 -1.71098989e-02
      9.18561872e-03 3.87108773e-02 5.21532595e-02 5.60669005e-02
      1.75937981e-04 -3.28068547e-02 -5.53127564e-02 -6.75895736e-02
      -5.49856536e-02 1.44578284e-02 5.52884974e-02 6.27462268e-02
      5.00704423e-02 -1.99439991e-02 -5.17159700e-02 -7.27940872e-02
      -5.97114265e-02 -4.47852053e-02 4.92500514e-02 1.74368210e-02
      -1.34574929e-02 -2.23339368e-02 -4.64496110e-03 -1.35925757e-02
      -4.40290757e-03 7.52426917e-03 1.36635797e-02 3.28975953e-02
      3.50744799e-02 -1.64567493e-02 -1.85722765e-02 -1.25901578e-02
      5.09978679e-04 3.41626474e-05 -1.40467659e-02 1.15581183e-02
      2.09941100e-02 4.35832702e-02 -2.37222505e-03 5.16054453e-03
      6.72709662e-03 -7.18685519e-03 -2.41644681e-02 -2.68031899e-02
      -2.96221813e-03 1.92338377e-02 5.36208563e-02 4.67886552e-02
      2.06201673e-02 -1.74475890e-02 -4.64635566e-02 -5.77838905e-02
      -4.84146662e-02 -3.13583799e-02 1.90876832e-03 5.33414036e-02
      6.06847703e-02 4.34314832e-02 -2.86613405e-02 -4.46822047e-02
      -5.71951345e-02 -5.52558266e-02 -3.93227749e-02 3.77336480e-02
      -1.08728334e-02 -1.98531430e-02 -8.94430617e-04 -1.03569487e-02
      3.47717362e-03 -3.92878149e-03 -2.74203960e-02 -5.89284860e-03
      3.62747051e-02 4.89722844e-03 -4.37306799e-03 8.76310375e-03
      -1.12399617e-02 -2.79426179e-03 -4.90013137e-03 -4.70734127e-02
      -2.08226703e-02 3.78412753e-02 2.79495679e-02 1.24997143e-02
      1.33281518e-02 -1.04687363e-02 -1.95320640e-02 -3.18849757e-02
      -4.74375971e-02 -2.30410676e-02 2.49885507e-02 4.84067723e-02
      3.84380333e-02 8.28149263e-03 -1.75012015e-02 -4.98819575e-02
      -6.02583513e-02 -4.86805439e-02 -1.93710942e-02 2.16160920e-02
      7.36200735e-02 4.73901778e-02 2.80971322e-02 -2.68356781e-02
      -3.80015448e-02 -5.96244149e-02 -6.35638088e-02 -2.30103824e-02
      -7.98041653e-03 -7.01501779e-03 -1.26225892e-02 8.94656172e-04
      -4.10662324e-04 8.57636146e-03 -1.52123370e-03 -4.41367039e-03
      -3.23792137e-02 1.83168173e-04 -6.47508353e-03 1.01662716e-02
      5.40634990e-03 -7.97951501e-03 -3.71004688e-03 1.88080641e-03
      -3.98751721e-03 -2.59429663e-02 2.00804528e-02 2.00095642e-02
      2.57443395e-02 1.28166042e-02 -1.52529478e-02 -2.52718162e-02
      -2.07435377e-02 -3.21431607e-02 -2.80056521e-02 1.29122287e-02
      4.10249755e-02 4.23670672e-02 1.42308883e-02 -6.06723502e-03
      -4.63094749e-02 -6.77840710e-02 -5.17527312e-02 -3.36800851e-02
      1.63813867e-02 6.56308681e-02 3.82903628e-02 2.31782012e-02
      -1.76590085e-02 -3.45559642e-02 -5.92931919e-02 -5.60544729e-02
      -3.51058394e-02 -1.92887671e-02 1.83872553e-03 6.68217987e-03
      2.61967592e-02 2.08059954e-03 -1.83074991e-03 -3.41283367e-03
      -5.51004242e-03 -2.57879887e-02 -7.88112450e-03 5.09431353e-03
      1.41766081e-02 -7.03493191e-04 -4.90772584e-03 -1.14328228e-02
      1.91494415e-04 -3.64689482e-03 -7.28442101e-03 1.09564355e-02
      1.91795602e-02 2.16052942e-02 -7.49450410e-03 -6.20343070e-03
      -2.92776451e-02 -2.50328276e-02 -2.43819505e-02 -7.56417494e-03
      3.69373197e-03 3.21360044e-02 4.49213386e-02 3.52174533e-03
      2.17734632e-04 -3.52973118e-02 -6.43704236e-02 -4.45788838e-02
      -2.10431926e-02 -1.23563902e-02 4.83745672e-02 4.97115031e-02
      2.52135620e-02 -1.17124924e-02 -2.07112506e-02 -5.30323163e-02
      -5.55504635e-02 -3.24393213e-02 -1.39248278e-02 4.99838451e-03
      -2.20896536e-03 2.19325651e-03 1.85220186e-02 -5.49865561e-03
      8.45758244e-03 -1.06442152e-02 -8.31253454e-03 -2.92430469e-03
      5.49554452e-03 1.75133031e-02 2.22848658e-03 7.41935335e-03
      -1.09307114e-02 -5.82856685e-03 -5.00084832e-03 -6.95719663e-03
      2.77587958e-03 1.64324529e-02 1.93738714e-02 8.95264652e-03
      -1.45716849e-03 -1.62007101e-02 -1.15516298e-02 -2.10625455e-02
      -9.98950563e-03 -2.77318031e-04 2.65190471e-02 4.49716784e-02
      3.23699415e-02 1.10913375e-02 -2.42042691e-02 -6.34914041e-02
      -4.46859896e-02 -2.02361457e-02 -1.50182191e-02 1.73258558e-02
      5.70052639e-02 5.55672310e-02 1.52807869e-02 -2.49249022e-02
      -4.91973497e-02 -5.52625172e-02 -3.72006707e-02 -9.90590174e-03
      1.11851841e-03 -2.35531013e-02 -1.03376862e-02 -5.11184975e-04
      -4.58220765e-03 3.61355091e-03 -5.85820759e-03 3.33125656e-03
      6.88015344e-03 -1.34780705e-02 9.60788503e-03 -1.21596549e-02
      -8.80661421e-03 -7.80095172e-04 -7.05322996e-03 -8.56596325e-03
      2.37938366e-03 1.00674657e-02 -1.62539526e-03 1.53205153e-02
      7.42744142e-03 -4.66596568e-03 -1.18548675e-02 -9.93512105e-03
      -2.82949172e-02 -8.81791231e-04 8.80627520e-03 1.24824578e-02
      2.96398886e-02 4.85913083e-02 1.67508535e-02 -1.94218811e-02
      -6.10500537e-02 -4.88034375e-02 -1.60531811e-02 -1.69648081e-02
      1.21584283e-02 5.24323359e-02 6.24533743e-02 2.80353036e-02
      -1.55077754e-02 -4.67019416e-02 -5.66654876e-02 -4.06492390e-02
      -1.10168438e-02 1.84505973e-02 -1.87558997e-02 -5.21764334e-04
      1.81250460e-02 1.35186557e-02 9.64020670e-04 -6.41233288e-03
      -9.25406441e-03 -9.52518173e-03 3.95600044e-04 -7.03640515e-04
      6.56040356e-05 1.87249184e-02 1.04229916e-02 8.06131866e-03
      -1.28061569e-03 -1.24913193e-02 -2.85921502e-03 5.28818462e-03
      3.58831584e-02 1.20106302e-02 1.59600526e-02 -1.15307225e-02
      -1.23309558e-02 -1.75644550e-02 -1.65327657e-02 -4.84839780e-04
      2.06211619e-02 4.23395894e-02 5.41617461e-02 2.68966090e-02
      -9.69134364e-03 -6.72246441e-02 -6.35540560e-02 -2.63669565e-02
      -1.50192026e-02 2.31853891e-02 5.53890243e-02 6.49680868e-02
      3.86003666e-02 -7.08778249e-03 -4.42656763e-02 -6.24113195e-02
      -5.14287651e-02</_>
    <_>
      -3.16354632e-02 -3.49792815e-03 1.08248750e-02 6.79508448e-02
      2.60742493e-02 3.61443534e-02 5.46605559e-03 5.32346591e-02
      -4.11568210e-02 -5.60678951e-02 -1.86320897e-02 -3.39078568e-02
      4.87163365e-02 3.92671004e-02 5.55146672e-02 3.63038257e-02
      5.20242266e-02 -4.32005487e-02 -4.48506586e-02 -2.94472333e-02
      -3.65198255e-02 4.31696363e-02 4.59113531e-02 3.80161740e-02
      3.33840549e-02 3.78784463e-02 -3.26460004e-02 -5.41318096e-02
      -1.30597502e-02 -1.71465091e-02 4.75748666e-02 1.40932435e-02
      2.05943715e-02 -1.52455736e-02 2.41139531e-03 -6.58423230e-02
      -2.11509019e-02 3.11233313e-03 5.42727578e-03 4.98137772e-02
      -2.54627857e-02 -3.50504816e-02 -3.27847973e-02 -3.07813026e-02
      -5.03744259e-02 -9.25361179e-03 -6.30225288e-03 -3.39729451e-02
      2.90501509e-02 3.66707481e-02 4.76593897e-02 3.03334072e-02
      5.83449639e-02 4.12740791e-03 -5.08528613e-02 -1.73081867e-02
      -1.86605360e-02 2.31418647e-02 3.75680886e-02 4.66694571e-02
      5.34897409e-02 5.19787669e-02 -3.18475929e-03 -5.60757108e-02
      -2.32634395e-02 -1.09659480e-02 4.25032377e-02 2.81622093e-02
      3.23590711e-02 2.30663102e-02 3.12838517e-02 -2.76894514e-02
      -6.00024611e-02 -2.18067523e-02 -3.71062721e-04 4.26355861e-02
      -1.88653753e-03 1.12233376e-02 -1.33212209e-02 8.27519409e-03
      -4.67379689e-02 -6.40253490e-03 9.93729196e-03 3.29493769e-02
      3.76887210e-02 -3.00698541e-02 -4.55263183e-02 -3.88420336e-02
      -2.25121938e-02 -3.78320441e-02 -1.98865402e-02 -1.19768642e-02
      -3.01518869e-02 4.06373404e-02 4.15923893e-02 3.64914946e-02
      3.82605754e-02 4.84386310e-02 1.75058737e-03 -5.35998121e-02
      -2.94263214e-02 -2.17786841e-02 2.26406939e-02 4.89569046e-02
      2.25181729e-02 5.83224967e-02 5.86574450e-02 4.21112683e-03
      -5.75602949e-02 -3.20630670e-02 -2.13907962e-03 4.75196429e-02
      2.19762828e-02 1.09955715e-02 2.37342194e-02 2.29888335e-02
      -4.64356057e-02 -5.46758175e-02 -2.53881961e-02 1.34288929e-02
      4.15545963e-02 -1.76662486e-03 -1.36959301e-02 4.67531476e-03
      2.44994648e-04 -5.85287325e-02 -1.49674807e-02 3.21051441e-02
      4.79956828e-02 2.53149550e-02 -2.83257999e-02 -5.90892434e-02
      -2.37377193e-02 -1.74846500e-02 -3.48009286e-03 -2.36444138e-02
      -4.66108620e-02 -1.29224323e-02 4.49483953e-02 2.05620956e-02
      2.77599432e-02 3.65240350e-02 3.58362310e-02 2.55137403e-02
      -2.69474313e-02 -2.99027897e-02 -1.11071197e-02 2.03942358e-02
      2.04565283e-02 5.86442323e-03 3.47301774e-02 3.64180394e-02
      1.20837279e-02 -3.90027687e-02 -6.99578971e-03 1.54363075e-02
      4.91660908e-02 2.87375320e-03 -1.49110137e-02 -1.09499171e-02
      -1.96260284e-03 -5.84463514e-02 -4.48771380e-02 3.12439236e-03
      2.88943425e-02 4.01897095e-02 -9.17981192e-03 -3.81329581e-02
      -2.10474022e-02 -2.49099247e-02 -6.76807016e-02 -1.80367697e-02
      6.36967719e-02 5.01568057e-02 2.09152400e-02 -1.80657022e-02
      -6.83578849e-02 -2.54117344e-02 -2.47110203e-02 -2.24928800e-02
      -2.07247306e-02 -2.98556443e-02 -1.29261594e-02 2.22586542e-02
      4.61341999e-02 3.81908752e-02 3.64538468e-02 3.21456119e-02
      8.75977799e-03 -2.33474411e-02 -5.70519362e-03 -3.10763833e-03
      1.08569721e-02 1.36270560e-03 7.74897402e-04 2.32813768e-02
      2.55023222e-02 3.88073130e-03 -2.33841538e-02 1.54299820e-02
      2.36931331e-02 3.32224518e-02 -2.16340926e-02 -1.78523492e-02
      -1.62749961e-02 -1.72419157e-02 -5.16620725e-02 -2.69924086e-02
      2.06024777e-02 3.94924618e-02 4.24265601e-02 -1.92401092e-02
      -5.68299443e-02 -2.82021835e-02 -4.94000651e-02 -6.51983097e-02
      -6.36261748e-03 7.04218075e-02 5.67553490e-02 2.21080519e-02
      -2.18453985e-02 -7.10946694e-02 -2.91087087e-02 -4.89579812e-02
      -4.27432247e-02 -8.51237867e-03 -3.01023312e-02 -2.43493449e-02
      5.93588827e-03 4.00883481e-02 4.26265113e-02 5.08755744e-02
      3.82699259e-02 6.60837721e-03 -1.01586599e-02 -1.00092338e-02
      -7.65682152e-03 1.29270591e-02 1.00023383e-02 7.73182232e-03
      3.31320949e-02 1.26308212e-02 -4.72561549e-03 -2.22602654e-02
      2.12173089e-02 2.44668201e-02 2.45147683e-02 -2.34195739e-02
      -1.28615471e-02 -8.91446043e-03 -3.11488844e-02 -4.95554619e-02
      -1.80616230e-02 2.87484825e-02 4.14522290e-02 3.16915438e-02
      -1.40874693e-02 -6.73012957e-02 -3.48491594e-02 -5.83477318e-02
      -6.76566139e-02 -3.41966338e-02 4.58631068e-02 4.49899137e-02
      4.10103127e-02 -9.13064089e-03 -6.03466369e-02 -3.88864838e-02
      -5.82258180e-02 -6.08961955e-02 -1.02161868e-02 -2.24063434e-02
      -1.31120002e-02 -4.76252474e-03 1.33265532e-03 3.90895158e-02
      4.84697782e-02 3.67338099e-02 4.44766087e-03 -8.03633034e-03
      -1.28540292e-03 -4.07084404e-03 1.98574401e-02 -2.79429951e-03
      1.31178424e-02 2.80058589e-02 -1.32667469e-02 -3.41234659e-03
      -2.40386948e-02 2.13678740e-02 2.00277865e-02 1.92019846e-02
      -2.74282438e-03 -2.64927791e-03 -7.74624897e-03 -3.91686447e-02
      -5.48949242e-02 -3.31876017e-02 3.34535651e-02 4.82154377e-02
      1.13866730e-02 -8.56223051e-03 -5.84910884e-02 -4.04099897e-02
      -5.48557453e-02 -7.54570588e-02 -5.49515188e-02 3.77037898e-02
      4.69879322e-02 4.45411615e-02 -1.14151146e-02 -4.49143797e-02
      -4.54411171e-02 -5.85282817e-02 -7.75706619e-02 -1.52981104e-02
      -2.79134475e-02 -3.65225300e-02 -1.42197199e-02 -2.65087727e-02
      3.80912125e-02 4.93138023e-02 2.02124156e-02 3.46123357e-03
      1.64644402e-02 -1.06229931e-02 -3.48510174e-03 1.16303265e-02
      -1.32497987e-02 9.88542382e-03 2.18792837e-02 -2.37532519e-02
      -1.08845634e-02 1.44064026e-02 1.39473323e-02 1.33744925e-02
      2.03486290e-02 -1.28665781e-02 -1.31433522e-02 -1.19175510e-02
      -3.81371193e-02 -4.30019684e-02 -2.51145195e-02 3.88999470e-02
      3.73044498e-02 2.95364996e-03 -9.76689998e-03 -6.40595928e-02
      -4.15164605e-02 -4.58134636e-02 -5.86291701e-02 -2.13697795e-02
      5.27544655e-02 2.49758493e-02 1.84143037e-02 -1.98804736e-02
      -4.41050678e-02 -4.83454131e-02 -4.22153324e-02 -3.69421802e-02
      -2.95950975e-02 -2.31705997e-02 -1.61422398e-02 -4.01409389e-03
      -4.47280034e-02 -4.24920348e-03 2.87989844e-02 2.20591035e-02
      -2.10811058e-03 2.55926512e-03 2.69375509e-03 1.63742993e-02
      1.38567081e-02 -2.65074242e-02 -2.35416591e-02 6.55093347e-04
      -6.18774490e-03 -1.42910723e-02 1.98860187e-02 2.55889203e-02
      2.56475769e-02 2.43412722e-02 -3.04410290e-02 -3.89272049e-02
      -1.32120717e-02 -1.88955590e-02 -4.32274304e-02 -9.41566657e-03
      3.53614651e-02 4.02600430e-02 1.99408904e-02 -5.17907180e-03
      -5.85728437e-02 -4.42935787e-02 -3.35029624e-02 -5.32094240e-02
      -1.20129539e-02 3.13020721e-02 2.31901910e-02 1.55561967e-02
      -1.57419089e-02 -3.32089886e-02 -4.24436182e-02 -3.04219704e-02
      -4.00368944e-02 -2.20986716e-02 -2.01165583e-02 -1.28486957e-02
      7.23480247e-03 -3.55691798e-02 -1.51235824e-02 1.70337260e-02
      9.61814914e-03 3.06585571e-03 -8.96155927e-03 3.25351320e-02
      2.13894621e-02 1.67427026e-02 -3.28649357e-02 -3.24667878e-02
      -4.00588382e-03 -2.70565618e-02 -6.81300648e-03 5.48810186e-03
      3.73059250e-02 3.01839542e-02 1.33177824e-02 -2.88867299e-02
      -5.33983335e-02 -3.03620826e-02 -3.65474448e-02 -2.24046148e-02
      -1.71697438e-02 4.09364030e-02 3.80567648e-02 1.13032674e-02
      3.69775458e-03 -4.38206531e-02 -5.83509356e-02 -4.66945916e-02
      -3.54416482e-02 -2.30464004e-02 2.97185164e-02 2.34588590e-02
      1.56646613e-02 1.27289782e-03 -1.40772983e-02 -4.47421372e-02
      -4.21556421e-02 -5.02884835e-02 -2.46592965e-02 1.36947753e-02
      -5.07960422e-03 5.77619346e-03 -2.17577741e-02 -1.76310018e-02
      4.18137647e-02 -6.49289601e-03 -2.43358174e-03 -5.36097912e-03
      5.05652279e-02 2.86848210e-02 2.01795287e-02 -2.61300988e-02
      -3.69593278e-02 -9.98345576e-03 -3.35142463e-02 -1.54046305e-02
      1.09316222e-02 4.55929637e-02 3.53975855e-02 2.00935975e-02
